<?xml version="1.0"?>
<opencv_storage>
<my_svm type_id="opencv-ml-svm">
  <svm_type>C_SVC</svm_type>
  <kernel><type>RBF</type>
    <gamma>8.9999999999999997e-02</gamma></kernel>
  <C>10.</C>
  <term_criteria><epsilon>1.1920928955078125e-07</epsilon>
    <iterations>2147483647</iterations></term_criteria>
  <var_all>324</var_all>
  <var_count>324</var_count>
  <class_count>8</class_count>
  <class_labels type_id="opencv-matrix">
    <rows>1</rows>
    <cols>8</cols>
    <dt>i</dt>
    <data>
      2 3 4 5 6 7 8 9</data></class_labels>
  <sv_total>221</sv_total>
  <support_vectors>
    <_>
      0. 0. 0. 0. 0. 0. 0. 0. 0. 0. 1.89224295e-02 4.93688211e-02
      1.47473179e-02 4.87325676e-02 0. 0. 0. 0. 3.70882392e-01
      4.96866703e-02 3.06114018e-01 0. 4.17898178e-01 0. 2.05786407e-01
      1.15931816e-01 3.70882392e-01 2.12502480e-01 9.02742893e-02
      2.89582789e-01 1.96630862e-02 4.17898178e-01 0. 1.54339805e-01
      8.69488493e-02 2.12502480e-01 5.96544221e-02 7.84753412e-02
      9.82363075e-02 3.86620462e-02 3.25605832e-02 0. 0. 0.
      4.13438864e-02 2.89091974e-01 2.82362074e-01 1.89901501e-01
      4.30150665e-02 2.23716553e-02 2.44751398e-04 2.65744831e-02
      5.86655876e-03 2.38499314e-01 7.88761303e-02 2.34389901e-01
      2.59785116e-01 1.43345505e-01 2.89091974e-01 5.59346266e-02
      2.06246357e-02 0. 4.73352931e-02 2.89091974e-01 2.89091974e-01
      2.89091974e-01 1.79748207e-01 2.89091974e-01 7.92353377e-02
      1.38195217e-01 4.41111950e-03 2.89091974e-01 3.17355335e-01
      1.52152434e-01 8.15873146e-02 4.17654915e-03 1.07977197e-01
      5.55468840e-04 1.89058274e-01 5.63392378e-02 2.34592855e-01
      8.45011249e-02 1.06763616e-02 4.05798992e-03 0. 1.90238550e-01
      2.22187504e-04 1.91821948e-01 6.13672435e-02 7.21426457e-02
      3.17355335e-01 2.52097726e-01 8.67784396e-02 2.15222333e-02
      3.17355335e-01 3.78646441e-02 3.17355335e-01 5.36335334e-02
      2.77756512e-01 6.37090430e-02 8.01142491e-03 3.04349186e-03 0.
      3.17355335e-01 4.09435555e-02 3.17355335e-01 6.46372885e-02
      6.99127167e-02 5.85781671e-02 1.38965733e-02 8.56152400e-02 0.
      3.66289705e-01 9.39672068e-02 7.08973408e-02 3.24242935e-02
      5.85781671e-02 3.35632153e-02 1.06415926e-02 4.55741100e-02
      5.59302163e-04 3.66289705e-01 8.90013054e-02 5.73228970e-02
      2.43182182e-02 3.35632153e-02 1.12190926e-02 2.31860462e-03
      1.42692057e-02 0. 3.66289705e-01 3.66289705e-01 2.02845007e-01
      1.05902469e-02 1.93248261e-02 1.74969181e-01 1.26941547e-01
      3.13797854e-02 8.48402455e-03 3.66289705e-01 3.66289705e-01
      2.13577792e-01 7.95258675e-03 1.01811953e-01 1.34169366e-02
      7.33376145e-02 6.98739439e-02 5.67879379e-02 4.20534760e-01
      1.18183747e-01 3.62469926e-02 0. 6.24697562e-03 1.20503880e-01
      1.85633689e-01 8.56496841e-02 7.43707940e-02 4.20534760e-01
      1.45481706e-01 1.01176873e-01 3.35274581e-06 5.66899590e-02
      1.52570173e-01 2.10811660e-01 1.22377433e-01 5.84989525e-02
      4.20534760e-01 1.65457606e-01 6.11553639e-02 3.35274581e-06
      7.55251795e-02 2.61853486e-02 8.38597938e-02 1.12683482e-01
      5.75745851e-02 4.20534760e-01 1.22249603e-01 3.28775719e-02 0.
      1.60467364e-02 9.42110568e-02 6.95561543e-02 2.22720224e-02
      1.07654352e-02 3.93397540e-01 1.11670829e-01 3.22278291e-01
      1.51490318e-02 5.74152507e-02 6.79557864e-03 3.47850588e-03
      2.14219317e-02 0. 3.93397540e-01 1.22298218e-01 3.64565551e-01
      2.83038318e-02 1.20614963e-02 5.19008599e-02 1.31760826e-02
      6.44017383e-02 4.64100530e-03 3.93397540e-01 8.17247927e-02
      9.93707702e-02 3.64278816e-02 5.19008599e-02 9.17251706e-02
      2.08625440e-02 1.28531560e-01 0. 3.93397540e-01 8.65704566e-02
      1.48111388e-01 5.18157855e-02 9.17251706e-02 7.24582672e-02
      1.34465983e-02 3.18202277e-04 0. 2.68310279e-01 2.68310279e-01
      2.68310279e-01 6.78642616e-02 7.46152103e-02 2.68310279e-01
      2.68310279e-01 9.44741890e-02 2.02356875e-02 2.68310279e-01
      2.61995524e-01 2.68310279e-01 6.52445182e-02 2.68310279e-01
      1.00341231e-01 1.79225877e-02 4.24269616e-04 0. 1.37416616e-01
      2.11570431e-02 1.84127748e-01 7.62913451e-02 8.31698850e-02
      2.68310279e-01 2.31029615e-01 8.50397870e-02 7.67362677e-03
      7.38911033e-02 1.70948580e-02 1.75992459e-01 7.63224289e-02
      2.68310279e-01 2.89286703e-01 2.89286703e-01 2.89286703e-01
      1.59322843e-01 2.89286703e-01 8.97414461e-02 7.00746998e-02
      5.95340272e-03 2.89286703e-01 1.04569279e-01 2.02289328e-01
      2.83139586e-01 1.46366790e-01 2.89286703e-01 4.35286351e-02
      1.15930466e-02 0. 7.01588541e-02 2.89286703e-01 2.89286703e-01
      1.82392642e-01 5.41960411e-02 3.32096815e-02 2.29312549e-03
      1.67315304e-02 7.92662427e-03 2.49842450e-01 7.32966587e-02
      7.23112300e-02 1.03492081e-01 4.72092256e-02 4.93002348e-02 0. 0.
      0. 5.27781621e-02 2.47603461e-01 6.32948428e-02 2.57312447e-01
      3.78974564e-02 3.80899489e-01 3.00560687e-02 1.60904020e-01
      9.06463116e-02 2.47603461e-01 3.80899489e-01 5.62058017e-02
      3.46276939e-01 0. 3.80899489e-01 2.25420482e-02 2.14538664e-01
      1.20861731e-01 3.80899489e-01 0. 6.80208486e-03 2.95459963e-02
      9.25371051e-03 3.69525924e-02 0. 0. 0. 0. 0. 0. 0. 0. 0. 0. 0. 0.
      0.</_>
    <_>
      7.51816016e-03 0. 0. 0. 0. 0. 0. 0. 7.51816016e-03 3.00726341e-03
      1.25383297e-02 5.50490879e-02 4.76418696e-02 5.58770522e-02 0. 0.
      0. 3.00726341e-03 2.37083286e-01 0. 1.71329901e-01 1.19605660e-01
      3.41255873e-01 2.14977577e-01 3.41255873e-01 1.25475869e-01
      3.41255873e-01 9.48333070e-02 3.43777277e-02 2.37985820e-01
      1.11364737e-01 3.41255873e-01 2.55391598e-01 3.16299111e-01
      9.41068903e-02 3.26938957e-01 7.09755272e-02 8.10952932e-02
      1.46796539e-01 4.75697257e-02 3.15069966e-02 7.85519090e-03
      9.41429008e-03 0. 2.73013171e-02 2.85546929e-01 2.56734759e-01
      2.30961487e-01 3.56772915e-02 1.26027977e-02 1.85570810e-02
      2.12913863e-02 2.65983902e-02 2.85546929e-01 7.58197531e-02
      1.64891556e-01 2.85546929e-01 6.34262934e-02 2.85546929e-01
      1.17071122e-01 4.89625037e-02 0. 2.99865082e-02 2.85546929e-01
      2.85546929e-01 2.85546929e-01 4.75697108e-02 2.85546929e-01
      1.94129243e-01 9.22799706e-02 3.71285975e-02 2.85546929e-01
      2.98050821e-01 1.13871701e-01 4.64662276e-02 0. 9.71964896e-02
      5.08744717e-02 1.25661358e-01 1.16497092e-01 2.98050821e-01
      1.03611395e-01 4.01640125e-03 0. 0. 2.05037713e-01 4.60288264e-02
      1.43033385e-01 9.00150314e-02 1.07651673e-01 2.98050821e-01
      2.44043708e-01 6.43127412e-02 0. 2.98050821e-01 2.53413171e-01
      2.21503511e-01 1.29720435e-01 2.98050821e-01 6.99177906e-02
      1.00410040e-02 0. 0. 2.98050821e-01 2.26046935e-01 2.21376374e-01
      8.44503194e-02 8.00185055e-02 3.82912681e-02 0. 5.34250997e-02
      3.72961424e-02 3.52322340e-01 1.88604027e-01 2.62234300e-01
      3.28472257e-02 9.27877501e-02 1.53165059e-02 2.15554540e-03
      3.36945802e-02 1.69329550e-02 3.52322340e-01 1.98045000e-01
      1.64252669e-01 2.46354137e-02 5.61888702e-02 1.04787983e-02
      1.26178311e-02 2.18432806e-02 1.22998515e-02 3.52322340e-01
      3.03608924e-01 2.01419592e-01 8.74935370e-03 1.35767423e-02
      1.34984896e-01 1.31229416e-01 5.82373999e-02 2.68821437e-02
      3.52322340e-01 3.05565745e-01 1.79760247e-01 7.44799990e-03
      9.68957469e-02 9.73726902e-03 4.40355949e-02 9.40388069e-02
      8.21030699e-03 4.28451151e-01 1.50034547e-01 8.65095034e-02 0.
      4.43735346e-03 8.74412134e-02 1.38442338e-01 1.16927862e-01
      6.15772977e-03 4.28451151e-01 1.85360700e-01 9.98205543e-02
      5.62572572e-03 4.24280912e-02 1.12377569e-01 1.60831034e-01
      1.52396157e-01 7.86625445e-02 4.28451151e-01 1.15077510e-01
      1.10298648e-01 3.61093157e-03 6.33602440e-02 1.40085155e-02
      5.22664897e-02 1.21069774e-01 7.03175068e-02 4.28451151e-01
      8.40767026e-02 8.24442953e-02 2.70819827e-03 7.42708798e-03
      6.89595044e-02 6.41523227e-02 2.67939903e-02 3.31307092e-04
      3.69499356e-01 2.51323849e-01 1.72993645e-01 1.90316886e-02
      4.56115715e-02 5.87635022e-03 2.44752457e-03 2.41995193e-02
      8.28267832e-04 3.69499356e-01 2.72930056e-01 2.57129312e-01
      1.16124395e-02 8.33842903e-03 2.46644914e-02 7.61643110e-04
      6.77732900e-02 6.57503912e-03 3.69499356e-01 9.12529305e-02
      1.73621953e-01 2.65043825e-02 9.40399766e-02 6.16612397e-02 0.
      1.45197079e-01 4.96960478e-03 3.69499356e-01 1.07414186e-01
      2.98169881e-01 3.53391729e-02 1.54161856e-01 7.08701238e-02
      4.44202125e-02 3.43382247e-02 1.75692756e-02 2.97016203e-01
      2.76277930e-01 1.64419830e-01 2.17704009e-02 7.28975609e-02
      2.97016203e-01 2.97016203e-01 1.71470135e-01 4.97227944e-02
      2.97016203e-01 2.56336868e-01 1.71693638e-01 1.86790563e-02
      2.97016203e-01 1.03462838e-01 2.65603177e-02 1.37352878e-02
      8.17255583e-03 9.02741924e-02 1.40706629e-01 9.02071148e-02
      1.63277984e-02 9.92933586e-02 2.97016203e-01 1.71826974e-01
      1.26899034e-01 2.23451927e-02 7.99405351e-02 1.25191107e-01
      9.06409249e-02 1.31863514e-02 2.97016203e-01 2.86273122e-01
      2.86273122e-01 2.86273122e-01 1.25108063e-01 2.86273122e-01
      3.92892063e-02 6.87436387e-02 1.14000747e-02 2.86273122e-01
      7.81519338e-02 1.45245656e-01 2.86273122e-01 1.18707009e-01
      2.86273122e-01 1.61437895e-02 4.15999144e-02 8.55005533e-03
      6.29713014e-02 2.86273122e-01 2.17863768e-01 2.86273122e-01
      3.38661484e-02 3.65088396e-02 7.06689991e-03 2.08955742e-02
      4.56002913e-03 2.86273122e-01 6.92306533e-02 7.34754130e-02
      1.97356075e-01 3.38784456e-02 5.63677885e-02 0. 1.02339964e-02
      3.42002162e-03 6.48528934e-02 1.07948944e-01 9.51829180e-03
      2.57276148e-01 5.13056293e-02 3.82741421e-01 3.60530545e-03
      2.02696890e-01 6.10246509e-02 3.82741421e-01 2.65462428e-01 0.
      3.26783776e-01 1.11847045e-02 3.82741421e-01 9.01326444e-03
      3.04713249e-01 8.13661963e-02 3.82741421e-01 5.37199108e-03
      3.80731653e-03 6.12846799e-02 2.01884732e-02 5.94811477e-02 0. 0.
      0. 5.37199108e-03 7.54999882e-03 0. 0. 0. 0. 0. 0. 0.
      7.54999882e-03</_>
    <_>
      3.21494527e-02 0. 0. 0. 0. 0. 0. 0. 3.21494527e-02 1.72612164e-02
      1.01824412e-02 5.34713157e-02 1.47110801e-02 6.45962656e-02 0. 0.
      0. 1.72612164e-02 1.92896605e-01 2.90407211e-01 1.69163719e-02
      7.33671933e-02 4.69916791e-01 6.01064088e-03 2.07984746e-01
      3.78919929e-01 1.92896605e-01 1.03567258e-01 1.48090497e-01
      2.00921074e-01 5.90010583e-02 4.69916791e-01 4.50797984e-03
      1.55988544e-01 2.84189939e-01 1.03567258e-01 9.99564379e-02
      5.66513166e-02 1.05440170e-01 2.03810595e-02 7.47000799e-02 0. 0.
      0. 2.31667943e-02 3.28719109e-01 2.13175267e-01 1.64934382e-01
      1.88189689e-02 6.80437535e-02 0. 8.89225677e-03 1.75434034e-02
      2.67182022e-01 1.16960950e-01 8.84831175e-02 2.89122432e-01
      4.97936346e-02 3.28719109e-01 0. 0. 0. 4.03586179e-02
      3.28719109e-01 2.29398936e-01 3.28719109e-01 5.62881790e-02
      3.28719109e-01 1.82026923e-02 3.40390243e-02 4.03981358e-02
      3.28719109e-01 3.17942709e-01 1.16622180e-01 4.59502637e-02
      1.22997363e-03 1.10535532e-01 8.52785166e-03 1.40292466e-01
      9.12873670e-02 3.17942709e-01 1.16317995e-01 3.11550591e-03 0. 0.
      2.03403831e-01 1.13704661e-02 1.63355738e-01 7.50312060e-02
      9.78045389e-02 3.17942709e-01 1.12438537e-01 6.38060346e-02
      6.97014434e-03 3.17942709e-01 1.29542246e-01 2.50723511e-01
      1.40703648e-01 3.17942709e-01 1.04578897e-01 7.78876524e-03 0. 0.
      3.17942709e-01 1.61003709e-01 2.65175670e-01 8.51686448e-02
      8.16140547e-02 1.97322853e-02 5.26051745e-02 3.06427898e-03
      2.35337559e-02 4.47727174e-01 1.92801387e-03 6.45250827e-02
      6.86386228e-02 1.97322853e-02 1.05943726e-02 2.33804360e-02
      1.70578286e-02 1.18719516e-02 4.47727174e-01 1.44601020e-03
      4.83938083e-02 5.14789559e-02 1.05943726e-02 2.35783607e-02 0.
      2.60305242e-04 4.57329396e-03 4.47727174e-01 6.40031770e-02
      2.10252240e-01 4.02573980e-02 1.85799822e-02 2.21561745e-01
      3.00659407e-02 4.19650972e-02 4.04614545e-02 4.47727174e-01
      4.83281575e-02 1.94890782e-01 8.07821602e-02 1.53047785e-01
      1.36787845e-02 1.58557128e-02 7.46215805e-02 1.50224585e-02
      4.68885958e-01 0. 0. 0. 7.85022322e-03 1.15449391e-01
      2.48511620e-02 8.54725391e-02 1.94190368e-02 4.68885958e-01
      1.98520143e-02 2.39387322e-02 1.10871587e-02 7.74224028e-02
      1.33023858e-01 6.60372600e-02 1.55807152e-01 7.81738907e-02
      4.68885958e-01 3.55191226e-03 1.66953523e-02 1.39032416e-02
      8.62669200e-02 1.26074394e-02 4.07262258e-02 1.31267473e-01
      3.72277349e-02 4.68885958e-01 4.55112755e-03 4.52179415e-03 0.
      6.90646144e-03 1.18231639e-01 1.01658963e-02 2.11453214e-02
      6.18799776e-03 4.06692982e-01 1.92289218e-01 1.78609416e-01
      3.60299647e-02 8.35115314e-02 1.47827389e-02 1.91957818e-03
      1.84429456e-02 6.04975410e-03 4.06692982e-01 2.72671282e-01
      2.12915197e-01 1.44119859e-02 1.15859583e-02 5.53562157e-02
      4.10528015e-03 1.07804626e-01 1.73557885e-02 4.06692982e-01
      9.12355632e-02 4.74432595e-02 0. 5.53562157e-02 7.38082752e-02 0.
      2.33846098e-01 3.93334627e-02 4.06692982e-01 1.44539028e-01
      7.30715245e-02 0. 7.38082752e-02 8.03626627e-02 3.27386856e-02
      1.81548428e-02 2.96396553e-03 2.90524662e-01 8.56462494e-02
      2.90524662e-01 1.07124291e-01 7.13174790e-02 2.90524662e-01
      1.93763420e-01 1.62316948e-01 3.79653387e-02 2.90524662e-01
      5.28011695e-02 2.90524662e-01 1.63130924e-01 2.90524662e-01
      8.61915797e-02 4.36515771e-02 2.35151127e-02 2.22297432e-03
      1.07611910e-01 1.73643343e-02 2.35112369e-01 7.00514168e-02
      8.37257355e-02 2.90524662e-01 2.01597795e-01 1.29427850e-01
      5.55743556e-03 5.31798378e-02 6.94573345e-03 2.00437695e-01
      7.69265965e-02 2.90524662e-01 3.08932275e-01 2.89174348e-01
      3.08932275e-01 9.70972180e-02 3.08932275e-01 4.30455990e-03
      3.70300300e-02 3.33037265e-02 3.08932275e-01 7.82850310e-02
      1.39886305e-01 3.08932275e-01 4.59297411e-02 3.08932275e-01 0. 0.
      0. 3.22202444e-02 3.08932275e-01 1.95018888e-01 2.59787798e-01
      2.15727324e-03 2.29933485e-02 0. 1.44042876e-02 9.48408898e-03
      2.39922613e-01 6.69969246e-02 6.67690188e-02 1.73355818e-01
      7.44124351e-04 3.37170213e-02 0. 0. 0. 1.98507290e-02
      2.50790358e-01 3.19104567e-02 3.80475104e-01 3.97238694e-02
      3.98518652e-01 6.49798661e-02 0. 0. 2.50790358e-01 3.34387124e-01
      0. 3.98518652e-01 8.37589577e-02 3.98518652e-01 8.66398066e-02 0.
      0. 3.34387124e-01 2.05877945e-02 8.55443720e-03 3.34093273e-02
      4.07876098e-04 2.23667342e-02 0. 0. 0. 2.05877945e-02
      2.74503883e-02 0. 0. 0. 0. 0. 0. 0. 2.74503883e-02</_>
    <_>
      1.79358646e-02 0. 0. 0. 0. 0. 0. 0. 1.79358646e-02 1.34518975e-02
      5.70974965e-03 3.99809629e-02 1.95237659e-02 2.73004007e-02 0. 0.
      0. 1.34518975e-02 2.81500012e-01 1.64672926e-01 4.02228981e-01
      8.22136849e-02 4.15939808e-01 6.93787485e-02 1.61830723e-01 0.
      2.81500012e-01 2.11124972e-01 1.00127652e-01 3.64829093e-01
      1.05860747e-01 4.15939808e-01 5.20340577e-02 1.21373028e-01 0.
      2.11124972e-01 6.80994838e-02 4.91995625e-02 1.49471715e-01
      2.07492393e-02 1.82169601e-02 0. 0. 0. 2.41795033e-02
      3.17980260e-01 1.33288369e-01 2.20934123e-01 1.68089960e-02
      1.01174349e-02 0. 4.18597274e-03 4.40140069e-03 3.15665156e-01
      8.33711028e-02 1.03508927e-01 3.17980260e-01 1.07301153e-01
      3.17980260e-01 4.32591327e-02 0. 0. 5.04311211e-02 3.17980260e-01
      2.04803705e-01 3.17980260e-01 1.09967440e-01 3.17980260e-01
      5.76788336e-02 2.51158327e-02 7.97712523e-03 3.17980260e-01
      3.21518213e-01 9.07207653e-02 6.47321939e-02 3.92526621e-04
      7.14870319e-02 3.71281127e-03 1.27539456e-01 5.35318367e-02
      3.21518213e-01 8.33623707e-02 2.57313270e-02 1.33375106e-02 0.
      1.48146316e-01 9.28202923e-03 1.66101366e-01 6.04745634e-02
      1.27846286e-01 3.21518213e-01 8.69625062e-02 9.96742100e-02
      9.65969730e-03 3.21518213e-01 5.14115356e-02 2.75905311e-01
      6.89176396e-02 3.21518213e-01 1.27650037e-01 1.92984939e-02
      1.00031318e-02 0. 3.21518213e-01 1.08671829e-01 3.21518213e-01
      7.21327662e-02 1.55536354e-01 4.03179862e-02 2.82935426e-02
      9.80516970e-02 2.50136759e-02 4.52669442e-01 3.01660690e-02
      4.92373146e-02 0. 4.03179862e-02 3.02384850e-02 1.46414461e-02
      5.98954409e-02 1.68320052e-02 4.52669442e-01 3.87170576e-02
      3.72102782e-02 0. 3.02384850e-02 3.47418599e-02 1.24543002e-02
      1.93226524e-02 4.16894536e-03 4.52669442e-01 1.05916612e-01
      8.65934417e-02 0. 4.82343249e-02 2.18820974e-01 1.13563024e-01
      1.05508462e-01 2.71453280e-02 4.52669442e-01 1.21758699e-01
      4.23180014e-02 0. 1.93278417e-01 1.08567765e-02 2.47183740e-02
      1.29949316e-01 4.51100580e-02 4.12511200e-01 1.24685608e-01
      1.00892433e-03 0. 1.08567765e-02 1.38128176e-01 3.78676504e-02
      1.51723817e-01 5.07322550e-02 4.12511200e-01 1.32697225e-01
      9.89327580e-03 1.94405997e-03 1.15550317e-01 1.28843650e-01
      1.69090003e-01 2.19040617e-01 9.96437147e-02 4.12511200e-01
      1.85949668e-01 2.52231117e-03 0. 8.43195617e-02 1.87800564e-02
      7.68634006e-02 1.50873512e-01 7.97413364e-02 4.12511200e-01
      1.50122076e-01 1.89173315e-03 0. 4.01731860e-03 1.59733176e-01
      7.92283379e-03 2.15438269e-02 8.65230151e-03 4.68553454e-01
      4.19710018e-02 1.00738898e-01 1.25924041e-02 1.27489403e-01
      3.11691314e-02 0. 0. 5.13987755e-03 4.68553454e-01 6.65595978e-02
      1.52069390e-01 1.10796392e-02 2.76894029e-02 1.99655015e-02
      2.16615498e-02 3.37620676e-02 1.42053170e-02 4.68553454e-01
      1.46070691e-02 4.87589389e-02 7.25857094e-02 2.77056377e-02
      3.57106850e-02 4.39836644e-02 4.90634404e-02 3.08392532e-02
      4.68553454e-01 1.23558911e-02 6.50119185e-02 9.67809185e-02
      4.60308678e-02 1.16851531e-01 6.29524738e-02 2.48997379e-02 0.
      2.93932498e-01 1.62213832e-01 2.26549879e-01 6.53327331e-02
      1.34672299e-01 2.93932498e-01 2.93932498e-01 2.02320427e-01
      2.54711471e-02 2.93932498e-01 1.23679101e-01 1.33195624e-01
      7.57237896e-02 2.93932498e-01 1.23733833e-01 5.61479181e-02
      1.48120765e-02 0. 1.14752956e-01 5.51203378e-02 1.53239533e-01
      8.71102884e-02 1.21888027e-01 2.93932498e-01 2.78903306e-01
      9.57591757e-02 3.55148129e-03 5.31601682e-02 3.53435650e-02
      1.07703201e-01 1.00965053e-01 2.93932498e-01 2.96633899e-01
      2.96633899e-01 2.96633899e-01 1.44329011e-01 2.96633899e-01
      7.67128319e-02 2.03187345e-03 1.04728788e-02 2.96633899e-01
      9.58940387e-02 1.92518935e-01 2.96633899e-01 1.13894574e-01
      2.96633899e-01 5.12634441e-02 6.80287078e-04 0. 2.68501826e-02
      2.96633899e-01 2.75915593e-01 2.13135958e-01 1.87740400e-02
      2.85596251e-02 1.10261759e-03 1.49976474e-03 1.39638381e-02
      2.06106961e-01 8.06292593e-02 7.87986964e-02 1.50836423e-01
      1.40805282e-02 4.53994013e-02 0. 0. 0. 2.38416791e-02
      1.41567826e-01 1.05578206e-01 2.08360553e-01 3.53803746e-02
      4.40229028e-01 2.09547840e-02 1.10255979e-01 2.90647894e-01
      1.72560915e-01 2.53210962e-01 1.76119536e-01 1.96459994e-01
      6.97351322e-02 4.40229028e-01 2.79397089e-02 1.47007942e-01
      3.87530446e-01 2.94535071e-01 2.35946383e-02 9.22423694e-03
      3.74636315e-02 0. 3.48735116e-02 0. 0. 0. 2.35946383e-02
      4.22018208e-02 0. 0. 0. 0. 0. 0. 0. 4.22018208e-02</_>
    <_>
      2.38201879e-02 0. 0. 0. 0. 0. 0. 0. 2.38201879e-02 1.78651400e-02
      1.63811520e-02 3.62767205e-02 0. 2.09815018e-02 0. 0. 0.
      1.78651400e-02 3.07233065e-01 6.15819311e-03 3.56057167e-01
      1.38470292e-01 3.56057167e-01 2.54002154e-01 3.27887200e-03
      3.95736843e-02 3.07233065e-01 2.30424777e-01 6.05227761e-02
      3.18592638e-01 1.06232256e-01 3.56057167e-01 3.38669479e-01
      2.45915353e-03 2.96802595e-02 2.30424777e-01 2.56290715e-02
      5.89876696e-02 1.43920764e-01 8.74873903e-03 1.48037365e-02 0. 0.
      0. 2.25726143e-02 2.97831059e-01 2.89475173e-01 2.32118770e-01
      1.42563554e-02 1.25740469e-02 1.80628430e-03 0. 3.33321071e-03
      2.52377450e-01 2.85911113e-02 1.76201075e-01 3.00811976e-01
      7.73268566e-02 3.00811976e-01 1.15490863e-02 0. 0. 2.42507868e-02
      3.00811976e-01 3.00811976e-01 3.00811976e-01 8.96096304e-02
      3.00811976e-01 2.19310019e-02 0. 1.99992526e-02 3.00811976e-01
      3.03431898e-01 1.93876758e-01 4.67477851e-02 2.46668304e-03
      4.38784882e-02 4.85287309e-02 1.08922318e-01 2.59946473e-02
      3.03431898e-01 1.12853132e-01 2.85654422e-02 0. 0. 1.09549709e-01
      7.69102424e-02 1.89479247e-01 2.79461388e-02 1.38931766e-01
      3.03431898e-01 2.91642964e-01 1.20158158e-01 1.17616253e-02
      3.03431898e-01 1.64275229e-01 1.38280392e-01 6.07841834e-02
      3.03431898e-01 1.10327527e-01 4.43476699e-02 0. 3.21006053e-03
      3.03431898e-01 2.11297587e-01 2.71611601e-01 3.90334874e-02
      1.30239889e-01 4.55929525e-02 2.02914909e-03 1.81264102e-01
      4.23095115e-02 4.46977139e-01 1.09365374e-01 1.08040136e-03
      1.30396867e-02 4.55929525e-02 3.41947079e-02 5.59832621e-03
      8.49388391e-02 3.14614549e-02 4.46977139e-01 1.45820469e-01
      8.10300931e-04 9.77976434e-03 3.41947079e-02 2.10942887e-02
      6.14388566e-03 5.21171503e-02 3.12796384e-02 4.46977139e-01
      6.42173961e-02 1.07461452e-01 2.08695345e-02 1.94084384e-02
      1.79981172e-01 9.80106890e-02 1.45994902e-01 3.60439420e-02
      4.46977139e-01 7.90781751e-02 1.01008803e-01 2.09495984e-02
      1.06475025e-01 2.56217038e-03 5.07162176e-02 1.09196298e-01
      4.55366857e-02 4.40333217e-01 1.61939021e-02 0. 0. 1.95681630e-03
      9.84101146e-02 1.30427629e-01 1.82946131e-01 6.38862178e-02
      4.40333217e-01 3.32793668e-02 0. 6.84383325e-03 4.62868959e-02
      9.67796370e-02 1.18487194e-01 2.68199861e-01 4.12314646e-02
      4.40333217e-01 7.84740690e-03 1.03628524e-02 2.27352302e-03
      5.84927835e-02 4.52040089e-03 4.96202447e-02 1.65211514e-01
      6.43880293e-02 4.40333217e-01 3.25434469e-02 0. 0. 5.26171084e-03
      1.27539873e-01 7.37422258e-02 7.99974799e-02 7.25292191e-02
      4.10812199e-01 2.13057995e-01 2.03447826e-02 2.16662921e-02
      7.35212341e-02 1.97178032e-02 8.83908663e-03 7.88033158e-02
      6.26637861e-02 4.10812199e-01 2.04150915e-01 4.68345210e-02
      9.24693141e-03 2.09306385e-02 5.87007925e-02 2.84868339e-03
      1.24262393e-01 9.51483026e-02 4.10812199e-01 1.82821751e-01 0. 0.
      5.87007925e-02 7.82677084e-02 0. 2.75851727e-01 8.65835249e-02
      4.10812199e-01 1.41859353e-01 0. 0. 7.82677084e-02 1.02959245e-01
      3.40958796e-02 7.07627740e-03 2.13883091e-02 2.85752028e-01
      8.30049366e-02 2.85752028e-01 6.41141906e-02 1.12942360e-01
      2.85752028e-01 2.85752028e-01 2.09789634e-01 2.90808640e-02
      2.85752028e-01 7.81360269e-02 2.29372025e-01 5.53205200e-02
      2.85752028e-01 1.34593427e-01 3.27267610e-02 3.28323501e-03
      8.90397094e-03 1.26566306e-01 5.16711324e-02 1.72389403e-01
      4.43407074e-02 1.51602045e-01 2.85752028e-01 2.85752028e-01
      8.50830302e-02 1.19658131e-02 4.97011170e-02 4.14004028e-02
      1.19030587e-01 3.50348465e-02 2.85752028e-01 3.00698370e-01
      3.00698370e-01 3.00698370e-01 5.42766005e-02 3.00698370e-01
      6.44761557e-03 2.63650995e-02 8.30467045e-03 2.86552042e-01
      3.13729569e-02 1.49175420e-01 3.00698370e-01 6.66536912e-02
      3.00698370e-01 1.17398649e-02 0. 0. 3.41591872e-02 2.79255807e-01
      3.00698370e-01 2.78467000e-01 5.50199393e-03 6.95496146e-03
      1.07460248e-03 6.73665153e-03 4.48461389e-03 2.34769091e-01
      2.81608179e-02 6.45292401e-02 1.79843247e-01 4.22477769e-03
      1.56577192e-02 0. 0. 0. 2.92753130e-02 2.80953765e-01
      1.97925251e-02 3.15842330e-01 1.03192188e-01 3.59620422e-01
      2.12690786e-01 0. 0. 2.80953765e-01 3.59620422e-01 0.
      3.59620422e-01 7.76848868e-02 3.59620422e-01 1.59518078e-01 0. 0.
      3.59620422e-01 2.24646721e-02 3.29875411e-03 3.64333875e-02
      2.25595036e-03 1.55206127e-02 0. 0. 0. 2.24646721e-02
      2.99528949e-02 0. 0. 0. 0. 0. 0. 0. 2.99528949e-02</_>
    <_>
      1.79645866e-02 0. 0. 0. 0. 0. 0. 0. 1.79645866e-02 1.34734390e-02
      2.30271239e-02 6.15952313e-02 0. 4.79294360e-02 0. 0. 0.
      1.34734390e-02 2.90634423e-01 0. 2.87123144e-01 6.92426553e-03
      3.57176751e-01 3.19329262e-01 1.80714592e-01 6.40054196e-02
      2.90634423e-01 2.17975810e-01 6.06212616e-02 3.00234407e-01
      2.76970584e-03 3.57176751e-01 3.48335177e-01 1.76093951e-01
      4.80040610e-02 2.17975810e-01 3.48939151e-02 1.06717192e-01
      1.33364171e-01 5.47526311e-03 3.45277004e-02 0. 0. 0.
      2.30807792e-02 2.99949795e-01 2.99949795e-01 1.61348268e-01
      7.30035035e-03 2.21541338e-02 3.31358355e-03 1.75585393e-02
      1.43994493e-02 2.45113567e-01 5.96182980e-02 1.73459515e-01
      2.99949795e-01 3.90046760e-02 2.99949795e-01 9.03199837e-02
      1.66705605e-02 0. 3.52142975e-02 2.99949795e-01 2.99949795e-01
      2.99949795e-01 8.15421641e-02 2.99949795e-01 1.21261224e-01
      2.66974494e-02 3.21954824e-02 2.99949795e-01 2.91674018e-01
      2.43438572e-01 1.95639357e-02 9.74400318e-04 5.99005111e-02
      1.36364531e-02 1.76122561e-01 8.94821063e-02 2.41285294e-01
      8.20054263e-02 4.64417785e-02 0. 0. 1.26120672e-01 1.02273393e-02
      2.02468738e-01 8.67245197e-02 6.38433620e-02 2.91674018e-01
      2.87171543e-01 3.88807356e-02 1.73951183e-02 2.91674018e-01
      1.45186454e-01 2.61319518e-01 1.62272081e-01 2.91674018e-01
      8.10818747e-02 5.11850826e-02 0. 0. 2.91674018e-01 1.02913812e-01
      2.91674018e-01 1.60038352e-01 5.58224246e-02 3.95721272e-02 0.
      4.66200411e-02 1.12428947e-03 4.26582247e-01 1.19312748e-01
      1.51021272e-01 1.84030365e-02 3.95721272e-02 2.96790916e-02
      3.71599291e-03 3.09866741e-02 4.49715764e-04 4.26582247e-01
      1.24936663e-01 1.79627240e-01 1.38022760e-02 2.96790916e-02
      1.83127895e-02 3.91075388e-03 0. 0. 4.26582247e-01 8.77903700e-02
      1.81657583e-01 4.94915526e-03 1.52539928e-02 1.78826049e-01
      1.41582012e-01 2.57811807e-02 1.33539634e-02 4.26582247e-01
      1.01286784e-01 2.37782419e-01 4.12613712e-03 1.15590483e-01
      1.36822378e-02 3.70133184e-02 8.03407952e-02 2.16492657e-02
      4.34995025e-01 1.51302636e-01 6.01736158e-02 0. 6.36505196e-03
      1.41309142e-01 8.15619603e-02 8.84846300e-02 5.04085943e-02
      4.34995025e-01 1.49408206e-01 3.13631669e-02 8.34454037e-03
      7.33089522e-02 1.74972191e-01 1.77832380e-01 1.36395931e-01
      9.80408788e-02 4.34995025e-01 7.15948120e-02 5.48395813e-02
      1.30424887e-04 8.62697065e-02 3.65210660e-02 5.57933077e-02
      1.23243041e-01 9.76392627e-02 4.34995025e-01 4.91352230e-02
      1.69855580e-02 0. 9.65261925e-03 1.10321686e-01 4.10956964e-02
      1.83252897e-02 1.21300761e-02 4.62106466e-01 1.12728126e-01
      8.35770667e-02 4.45379652e-02 6.67683333e-02 1.30778924e-02
      9.23600700e-03 2.15188619e-02 0. 4.62106466e-01 7.99394622e-02
      1.76619068e-01 5.03822677e-02 1.03661167e-02 6.10413067e-02
      1.00371372e-02 6.43451214e-02 7.77327782e-03 4.62106466e-01
      1.33513939e-02 6.63479716e-02 2.43228320e-02 4.59657088e-02
      1.12860397e-01 2.09569428e-02 1.29113123e-01 0. 4.62106466e-01
      1.00135440e-02 8.84639546e-02 3.24304365e-02 7.51713812e-02
      7.56049603e-02 2.02494767e-02 0. 0. 2.97280222e-01 8.88795257e-02
      2.65538990e-01 2.46427152e-02 6.57430068e-02 2.97280222e-01
      2.97280222e-01 3.42354700e-02 1.14050796e-02 2.97280222e-01
      9.81678441e-02 2.92255223e-01 2.86460631e-02 2.97280222e-01
      8.08857307e-02 1.79136526e-02 0. 0. 8.85972753e-02 2.52542924e-02
      2.08491072e-01 2.80179083e-02 7.48427883e-02 2.97280222e-01
      2.76387542e-01 1.25957904e-02 4.72436572e-04 5.71360625e-02
      2.41679102e-02 2.12217584e-01 3.35002765e-02 2.97280222e-01
      2.91431278e-01 2.91431278e-01 2.91431278e-01 1.62173614e-01
      2.91431278e-01 1.46888876e-02 4.11244594e-02 4.28327359e-03
      2.91431278e-01 1.36813909e-01 1.35818303e-01 2.91431278e-01
      1.78412229e-01 2.91431278e-01 0. 0. 0. 6.24533892e-02
      2.91431278e-01 2.91431278e-01 1.16036333e-01 4.85661291e-02
      4.26691025e-02 2.43795896e-03 2.38507800e-02 5.26214205e-03
      2.81143397e-01 9.24775526e-02 5.52208796e-02 1.12947464e-01
      6.31882325e-02 4.96094599e-02 0. 0. 0. 5.89595474e-02
      2.87432432e-01 3.54926698e-02 2.63883412e-01 7.97997639e-02
      3.86254042e-01 0. 1.73529908e-01 6.36151880e-02 2.17610851e-01
      3.86254042e-01 5.48118614e-02 3.37689072e-01 0. 3.86254042e-01 0.
      2.31373176e-01 8.48202407e-02 3.54449481e-01 1.80878304e-03
      2.26132106e-03 3.64275128e-02 3.76128219e-02 3.17108370e-02 0. 0.
      0. 1.80878304e-03 2.41171033e-03 0. 0. 0. 0. 0. 0. 0.
      2.41171033e-03</_>
    <_>
      0. 0. 0. 0. 0. 0. 0. 0. 0. 0. 2.00592652e-02 5.11921868e-02 0.
      4.11935039e-02 0. 0. 0. 0. 3.61089349e-01 6.97177881e-03
      3.41028422e-01 0. 3.94949287e-01 1.00068577e-01 1.63636133e-01
      1.51028842e-01 3.61089349e-01 2.09542736e-01 7.23035261e-02
      3.22343975e-01 0. 3.94949287e-01 1.33424759e-01 1.22727081e-01
      1.13271601e-01 2.09542736e-01 4.00925763e-02 5.66640720e-02
      1.34177789e-01 1.70915551e-03 3.07664014e-02 9.89481225e-04 0. 0.
      4.15805429e-02 3.02126884e-01 2.69135803e-01 2.23998144e-01
      2.27887393e-03 2.09018141e-02 3.09901615e-03 1.83378365e-02
      1.02594113e-02 2.69157618e-01 5.36205396e-02 1.59867272e-01
      3.02126884e-01 4.36669551e-02 3.02126884e-01 9.83978994e-03 0. 0.
      5.25276847e-02 3.02126884e-01 3.02126884e-01 3.02126884e-01
      1.04182370e-01 3.02126884e-01 1.85940918e-02 2.50813961e-02
      1.61860846e-02 3.02126884e-01 2.78687239e-01 2.05044389e-01
      8.88632536e-02 2.88227253e-04 3.19760591e-02 1.23697659e-02
      1.86096519e-01 8.15980509e-02 2.31270581e-01 8.12858939e-02
      3.62090133e-02 1.13798175e-02 0. 9.50421914e-02 1.83618739e-02
      2.56161302e-01 8.61729681e-02 7.46932030e-02 3.07160467e-01
      3.07160467e-01 8.78312290e-02 2.27779467e-02 3.07160467e-01
      5.57991937e-02 2.36674741e-01 1.08963944e-01 3.07160467e-01
      8.33788216e-02 4.77778241e-02 8.53486173e-03 0. 3.07160467e-01
      6.41227588e-02 3.07160467e-01 1.09416738e-01 8.13594162e-02
      6.03337884e-02 2.06280313e-03 1.00903153e-01 0. 4.18084204e-01
      9.91182998e-02 6.90410957e-02 4.51078787e-02 6.03337884e-02
      3.50121260e-02 5.89285186e-03 5.43491654e-02 0. 4.18084204e-01
      1.32157713e-01 4.45622131e-02 3.36833373e-02 3.50121260e-02
      3.41689140e-02 4.75863693e-03 1.68171916e-02 0. 4.18084204e-01
      1.21832520e-01 2.69350827e-01 4.11376730e-02 2.22630017e-02
      2.70692378e-01 1.13224901e-01 3.98041531e-02 3.00146099e-02
      4.18084204e-01 1.62443355e-01 1.19347826e-01 6.13864250e-02
      1.11777157e-01 8.92149564e-03 4.33219485e-02 7.61829540e-02
      2.61678733e-02 4.56282377e-01 1.70074031e-02 0. 0. 7.39561068e-03
      1.08228981e-01 1.28556371e-01 7.97977149e-02 6.43989816e-02
      4.56282377e-01 6.74180035e-03 4.69404133e-03 2.48382124e-03
      6.93677366e-02 1.53926387e-01 1.41964421e-01 1.33646965e-01
      1.23433620e-01 4.56282377e-01 1.82589963e-02 4.74920060e-04
      9.05905385e-03 6.37015849e-02 1.26055982e-02 5.64608723e-02
      1.15700454e-01 1.09752245e-01 4.56282377e-01 0. 0. 0.
      6.41707191e-03 1.17567696e-01 8.18460062e-02 9.09287576e-03
      1.89898014e-02 4.68318373e-01 2.40932219e-02 7.95080885e-02
      2.73763910e-02 7.82054067e-02 2.79132035e-02 1.33317448e-02 0. 0.
      4.68318373e-01 2.39648633e-02 1.09063402e-01 2.91496329e-02
      1.78196598e-02 5.34310564e-02 1.55258076e-02 1.18289012e-02
      1.44776264e-02 4.68318373e-01 0. 1.17420703e-01 4.91847545e-02
      2.64814496e-02 1.23831630e-01 3.19625959e-02 0. 0. 4.68318373e-01
      0. 1.56560943e-01 6.55796602e-02 5.64575940e-02 1.20742559e-01
      3.07395998e-02 1.36925010e-02 0. 3.03243279e-01 6.80095106e-02
      2.93252766e-01 1.18078373e-01 1.08696662e-01 3.03243279e-01
      2.69780964e-01 1.67283922e-01 2.57330127e-02 3.03243279e-01
      9.06793326e-02 1.94662958e-01 1.50684416e-01 3.03243279e-01
      9.86811072e-02 2.99085211e-02 1.82566643e-02 0. 1.42703936e-01
      1.05121136e-02 1.24713644e-01 9.12646204e-02 1.10394694e-01
      3.03243279e-01 1.42371014e-01 1.56293988e-01 0. 6.77252188e-02
      1.40161496e-02 1.31618217e-01 9.26044807e-02 3.03243279e-01
      2.94883668e-01 2.94883668e-01 2.94883668e-01 1.80846334e-01
      2.94883668e-01 1.49259334e-02 1.16698919e-02 2.55198497e-02
      2.94883668e-01 6.14839606e-02 1.73736393e-01 2.94883668e-01
      1.72294587e-01 2.94883668e-01 0. 0. 0. 3.99280675e-02
      2.94883668e-01 1.62033290e-01 2.66768605e-01 1.51965162e-02
      7.20217265e-03 2.30707601e-03 1.43280216e-02 9.37380176e-03
      2.71519542e-01 4.47441004e-02 6.65212795e-02 1.49958849e-01
      2.02620197e-02 1.42918117e-02 0. 0. 0. 3.44732702e-02
      2.50416726e-01 7.25017861e-02 1.48672611e-01 1.14638172e-01
      3.81183952e-01 0. 2.95404553e-01 1.59292951e-01 1.59024864e-01
      3.81183952e-01 1.08391948e-01 0. 0. 3.81183952e-01 0.
      3.81183952e-01 2.12390572e-01 3.39035869e-01 0. 4.85750241e-03
      3.78369391e-02 1.62667539e-02 1.80550665e-02 0. 0. 0. 0. 0. 0. 0.
      0. 0. 0. 0. 0. 0.</_>
    <_>
      6.98879315e-03 0. 0. 0. 0. 0. 0. 0. 6.98879315e-03 5.24159428e-03
      5.70899853e-03 5.94497584e-02 3.59821180e-03 2.47551166e-02 0. 0.
      0. 5.24159428e-03 3.67791921e-01 9.17607397e-02 0. 0.
      3.67791921e-01 2.51443684e-01 1.77022502e-01 3.00489753e-01
      2.44994119e-01 2.70042062e-01 7.09582791e-02 2.08416417e-01
      6.62686005e-02 3.67791921e-01 2.97168165e-01 9.24856663e-02
      2.76511461e-01 1.83745578e-01 3.14450897e-02 7.37407655e-02
      1.23124868e-01 3.61812324e-03 1.46380989e-02 0. 0. 0.
      2.32146773e-02 3.05859476e-01 3.05859476e-01 1.97205260e-01
      2.93630781e-03 8.61917809e-03 2.76529673e-03 0. 0. 2.24437013e-01
      4.03569713e-02 1.85483456e-01 3.05859476e-01 6.18944876e-02
      3.05859476e-01 8.19258019e-03 9.03338077e-04 3.41015193e-03
      2.80946139e-02 3.05859476e-01 3.05859476e-01 3.05859476e-01
      4.77571562e-02 3.05859476e-01 1.65917762e-02 0. 0. 3.05859476e-01
      3.34057420e-01 1.99408829e-01 5.39256521e-02 6.44717438e-05
      5.13581336e-02 2.30028294e-02 9.46516991e-02 4.41362821e-02
      2.62771696e-01 1.35880902e-01 2.38944367e-02 6.25293143e-03 0.
      1.45690441e-01 3.86103578e-02 1.88710570e-01 6.35223687e-02
      1.11906610e-01 3.34057420e-01 2.93954581e-01 1.34591728e-01
      3.86830361e-04 3.34057420e-01 9.53005105e-02 1.00460656e-01
      3.42965759e-02 3.34057420e-01 1.43171728e-01 4.03730832e-02
      1.34199262e-02 0. 3.34057420e-01 1.24870948e-01 2.01807916e-01
      4.96631227e-02 1.13872468e-01 8.32911804e-02 1.69005096e-02 0. 0.
      4.57929194e-01 1.00069806e-01 9.31012556e-02 8.55564401e-02
      4.33422029e-02 4.72150743e-02 1.03229564e-02 1.68821719e-02
      1.10769300e-02 4.57929194e-01 1.07377872e-01 4.12329137e-02
      7.35870674e-02 3.25066447e-02 1.19864820e-02 3.15118395e-02
      6.48361957e-03 0. 4.57929194e-01 4.71237861e-02 5.92194684e-02
      1.38814962e-02 1.25917960e-02 2.22322166e-01 1.48368090e-01
      4.46401015e-02 3.75037529e-02 4.57929194e-01 5.00589460e-02
      5.33835627e-02 1.04111200e-02 1.07328340e-01 5.15615521e-03
      4.75237519e-02 1.04488254e-01 3.32384035e-02 4.62617368e-01
      9.14505683e-03 5.42106514e-04 2.04648240e-03 3.60088306e-03
      1.16266906e-01 1.24548815e-01 1.71542645e-01 2.53816620e-02
      4.62617368e-01 5.62288007e-03 0. 0. 5.48714772e-02 1.44032910e-01
      9.90679786e-02 1.00504100e-01 7.38883168e-02 4.62617368e-01
      4.40361770e-03 5.14656818e-03 0. 6.02425188e-02 1.76768973e-02
      4.32391688e-02 9.58755389e-02 3.91883850e-02 4.62617368e-01 0. 0.
      0. 7.86246546e-03 1.35567233e-01 6.25715852e-02 4.65277024e-02
      3.09064984e-03 4.78580713e-01 3.50395292e-02 2.04496700e-02
      1.19468092e-03 6.98826537e-02 2.44150888e-02 8.00434686e-03
      3.00885644e-03 7.31347967e-03 4.78580713e-01 3.91615219e-02
      3.37992758e-02 1.72645913e-03 1.88889094e-02 3.71844433e-02
      1.45272277e-02 1.22095766e-02 1.77633055e-02 4.78580713e-01 0.
      8.64545032e-02 6.05129264e-02 1.37328412e-02 8.72186050e-02
      2.78139096e-02 0. 4.38808650e-02 4.78580713e-01 0. 1.15272649e-01
      8.06838870e-02 2.85895970e-02 8.46537501e-02 1.07527524e-01
      1.56046608e-02 0. 3.14208567e-01 4.07284163e-02 1.44689322e-01
      4.06459048e-02 6.41613752e-02 3.14208567e-01 3.14208567e-01
      1.03919938e-01 4.05366682e-02 3.14208567e-01 5.54367900e-02
      1.49384663e-01 3.70711908e-02 3.14208567e-01 1.30134672e-01
      7.45526925e-02 6.87823724e-03 0. 1.78255290e-01 1.56195145e-02
      1.47464678e-01 4.87347394e-02 1.02811508e-01 3.14208567e-01
      3.14208567e-01 5.07394001e-02 7.75871379e-03 9.19930786e-02
      2.11328212e-02 1.32869840e-01 4.53334004e-02 3.14208567e-01
      3.08174044e-01 3.08174044e-01 3.08174044e-01 1.54688656e-01
      3.08174044e-01 8.92456342e-03 1.53642744e-02 2.30969745e-03
      2.67827392e-01 8.59680772e-02 1.68020010e-01 2.89431572e-01
      1.00027665e-01 3.08174044e-01 0. 0. 0. 4.44614701e-02
      3.08174044e-01 3.08174044e-01 1.38319120e-01 4.15531918e-02
      4.82942574e-02 3.31978220e-03 7.98189361e-03 3.07959621e-03
      2.19592303e-01 6.38569221e-02 1.01284966e-01 1.11473948e-01
      3.39962021e-02 6.33629858e-02 0. 0. 0. 3.65679488e-02
      1.99534118e-01 7.98819512e-02 1.14995509e-01 4.62960452e-02
      4.18950289e-01 0. 2.38154918e-01 2.43787482e-01 1.01576634e-01
      4.18950289e-01 1.16178878e-01 0. 1.03507541e-01 4.18950289e-01 0.
      3.17539871e-01 3.25049967e-01 2.11466432e-01 1.69294383e-02
      9.99059621e-03 3.23988125e-02 3.66976927e-03 3.98464538e-02 0. 0.
      0. 1.69294383e-02 3.52444053e-02 0. 0. 0. 0. 0. 0. 0.
      3.52444053e-02</_>
    <_>
      2.97202077e-02 0. 0. 0. 0. 0. 0. 0. 2.97202077e-02 1.66220218e-02
      1.57793909e-02 4.72177751e-02 0. 5.21135181e-02 0. 0. 0.
      1.66220218e-02 2.70176470e-01 3.06465864e-01 7.64886960e-02
      1.81260094e-01 4.55100209e-01 1.45349145e-01 9.14194956e-02
      3.14458847e-01 2.29680032e-01 1.36474192e-01 1.78973168e-01
      1.99325696e-01 7.25040287e-02 4.55100209e-01 1.09011859e-01
      6.85646087e-02 2.35844091e-01 1.38251230e-01 4.63061966e-02
      7.63399154e-02 1.02043495e-01 2.02246010e-02 4.55467738e-02 0. 0.
      0. 3.99225838e-02 3.05005044e-01 2.93971419e-01 1.76889613e-01
      2.69661322e-02 3.07791512e-02 1.15910123e-04 4.28056577e-03
      3.03117486e-06 2.47360379e-01 5.31337745e-02 1.70675740e-01
      3.05005044e-01 6.52033165e-02 3.05005044e-01 0. 0. 0.
      4.46222909e-02 3.05005044e-01 3.05005044e-01 3.05005044e-01
      1.04019865e-01 3.05005044e-01 6.95460476e-04 2.56833881e-02
      7.57793759e-06 3.05005044e-01 3.42934489e-01 1.30692661e-01
      5.28104082e-02 3.27117322e-03 5.42194769e-02 4.33526788e-04
      1.09735198e-01 3.98085080e-02 2.92328268e-01 1.34116068e-01
      5.99889038e-03 0. 0. 1.84656262e-01 3.25145054e-04 1.90876737e-01
      8.09732080e-02 1.43951252e-01 3.42934489e-01 1.72862023e-01
      8.13004300e-02 1.60409287e-02 3.42934489e-01 2.60115974e-03
      1.80215567e-01 3.45082730e-02 3.42934489e-01 1.20469123e-01
      4.50275326e-03 0. 0. 3.42934489e-01 1.95086957e-03 2.40849689e-01
      7.23249167e-02 1.50390267e-01 3.21334787e-02 5.11424802e-02
      2.26029530e-02 5.35636470e-02 4.71213549e-01 4.29517068e-02
      2.70151105e-02 5.24763316e-02 2.53755096e-02 1.55301271e-02
      2.46489383e-02 2.15850361e-02 2.14254577e-02 4.71213549e-01
      3.22137810e-02 2.02613305e-02 3.93572450e-02 1.58266742e-02
      2.14567631e-02 2.35334005e-06 3.76715860e-03 8.92727450e-03
      4.71213549e-01 3.59135568e-02 9.93955880e-02 1.60204172e-02
      4.79314774e-02 1.98468953e-01 7.34383911e-02 6.54054135e-02
      1.58572849e-02 4.71213549e-01 1.86018981e-02 7.89192840e-02
      1.60791073e-02 1.36675000e-01 5.91187878e-03 4.10056449e-02
      8.91040489e-02 1.95163470e-02 4.54125881e-01 0. 0. 0.
      4.93952306e-03 1.13621205e-01 1.02433175e-01 1.30181357e-01
      3.68577205e-02 4.54125881e-01 2.49131554e-04 9.20043979e-03
      1.53298879e-06 5.36861718e-02 1.23011597e-01 1.25976175e-01
      2.02850625e-01 9.06741619e-02 4.54125881e-01 0. 6.86148740e-03
      1.76551135e-03 6.02790229e-02 6.26674760e-03 5.18330038e-02
      1.41023576e-01 9.53834951e-02 4.54125881e-01 0. 0. 0.
      6.26674760e-03 1.18037626e-01 3.59196141e-02 2.69788373e-02
      1.32088689e-02 4.82075423e-01 8.21549725e-03 5.08301631e-02
      1.48197834e-03 7.25384057e-02 1.82886049e-02 1.26376403e-06
      5.38962567e-03 1.27721801e-02 4.82075423e-01 1.02911489e-02
      4.84439433e-02 3.69271007e-03 2.62338649e-02 2.09768899e-02
      3.46241184e-02 2.31160708e-02 4.31456938e-02 4.82075423e-01
      4.24751192e-02 2.67153550e-02 5.63080534e-02 2.69747470e-02
      4.49932180e-02 8.05630311e-02 3.23377438e-02 7.66330659e-02
      4.82075423e-01 5.66334873e-02 3.56204659e-02 7.50773922e-02
      4.33545969e-02 1.27000257e-01 3.30996979e-03 0. 0. 3.08308810e-01
      7.00788200e-02 2.96040326e-01 4.78967987e-02 1.70413718e-01
      3.08308810e-01 2.24990532e-01 1.64439812e-01 1.02888560e-02
      3.08308810e-01 3.60804126e-02 1.92637190e-01 3.96863297e-02
      3.08308810e-01 1.69133022e-01 4.40752460e-03 0. 0. 1.40300721e-01
      3.88323143e-02 1.85998827e-01 3.20599750e-02 1.62132114e-01
      3.08308810e-01 1.67877167e-01 1.11319713e-01 0. 6.13168962e-02
      2.15695873e-02 1.08336769e-01 2.34573577e-02 3.08308810e-01
      2.92368859e-01 2.92368859e-01 2.92368859e-01 1.31055444e-01
      2.92368859e-01 0. 1.46664800e-02 3.77612142e-03 2.84073234e-01
      3.83847877e-02 1.60354868e-01 2.92368859e-01 1.43941268e-01
      2.92368859e-01 0. 0. 0. 3.83847877e-02 2.92368859e-01
      2.76762366e-01 2.92368859e-01 1.26876198e-02 6.09365944e-03 0.
      2.44441302e-03 6.30601251e-04 2.33325973e-01 3.16168778e-02
      7.01564923e-02 1.64680734e-01 1.69168245e-02 1.37838535e-02 0. 0.
      0. 3.16168778e-02 1.36423782e-01 1.60498574e-01 1.29511043e-01
      1.46680236e-01 4.02985185e-01 1.05551369e-01 6.63880929e-02
      2.47780994e-01 1.79981977e-01 2.83014566e-01 3.54513884e-01
      8.03598091e-02 1.90434381e-01 4.02985185e-01 1.40735149e-01
      8.85174423e-02 3.30374628e-01 2.98690408e-01 1.72050018e-02
      3.11550614e-03 2.58949511e-02 9.12292954e-03 1.28481947e-02 0. 0.
      0. 2.37773303e-02 3.33383530e-02 0. 0. 0. 1.94819237e-03 0. 0. 0.
      4.21014540e-02</_>
    <_>
      1.61263924e-02 0. 0. 0. 0. 0. 0. 0. 1.61263924e-02 1.12596471e-02
      4.91635455e-03 3.88128608e-02 1.32676316e-02 1.81641448e-02 0. 0.
      0. 1.12596471e-02 2.85196275e-01 3.56136382e-01 2.76041240e-01 0.
      4.17938203e-01 1.47656530e-01 9.28707570e-02 0. 3.33106995e-01
      1.76226571e-01 1.71952650e-01 2.58939028e-01 1.14841700e-01
      4.17938203e-01 1.10742383e-01 6.96530491e-02 0. 2.44819328e-01
      2.88817659e-02 5.97838610e-02 1.47150472e-01 1.39751984e-02
      1.13826105e-02 0. 0. 0. 2.88817659e-02 2.98238397e-01
      2.47413173e-01 2.80498207e-01 1.04813976e-02 5.05828205e-03 0.
      3.88003513e-03 1.00069784e-03 2.50724047e-01 3.60943601e-02
      1.30791798e-01 2.98238397e-01 1.36081487e-01 2.98238397e-01 0. 0.
      0. 3.60943601e-02 2.98238397e-01 2.98238397e-01 2.98238397e-01
      1.28512770e-01 2.98238397e-01 0. 2.32802033e-02 5.99323353e-03
      2.98238397e-01 3.45118940e-01 1.05796859e-01 7.36594498e-02 0.
      5.14165834e-02 0. 1.09883517e-01 4.42691520e-02 2.91815251e-01
      1.41372666e-01 3.16512422e-03 0. 0. 1.83834225e-01 0.
      1.93104342e-01 8.53150710e-02 1.34874985e-01 3.45118940e-01
      1.30211890e-01 1.24702796e-01 8.01626127e-03 3.45118940e-01 0.
      1.71784416e-01 5.72890528e-02 3.45118940e-01 1.15374207e-01
      2.37749889e-03 0. 0. 3.45118940e-01 0. 2.36586422e-01
      9.03157964e-02 1.52329952e-01 4.40146029e-02 7.07394332e-02
      1.03381202e-01 4.12420044e-03 4.38338965e-01 6.19113594e-02
      8.23045745e-02 0. 5.26898541e-02 2.65848339e-02 3.13120820e-02
      5.38576916e-02 1.83535740e-02 4.38338965e-01 4.13351357e-02
      4.33441512e-02 0. 3.90050001e-02 2.59882659e-02 2.39699450e-03
      1.03979982e-01 2.47451924e-02 4.38338965e-01 1.28520802e-01
      2.08937719e-01 2.22175606e-02 5.08150123e-02 2.19689131e-01
      8.18921924e-02 1.12025701e-01 2.34410316e-02 4.38338965e-01
      5.58383726e-02 1.26741290e-01 1.95470508e-02 1.51685908e-01
      4.00125189e-03 3.07424422e-02 1.09352060e-01 6.98832721e-02
      4.48467165e-01 0. 0. 0. 4.00125189e-03 9.10414383e-02
      7.34064057e-02 1.76322088e-01 6.88752159e-02 4.48467165e-01 0.
      8.18216614e-03 2.10521207e-03 7.07284212e-02 1.22477949e-01
      1.27585366e-01 2.05457360e-01 9.18393731e-02 4.48467165e-01 0.
      6.94966083e-03 1.78819906e-03 6.38470873e-02 6.34727860e-03
      5.24990857e-02 1.42835796e-01 9.66092199e-02 4.48467165e-01 0. 0.
      0. 6.34727860e-03 9.59618241e-02 2.38633119e-02 3.80128175e-02
      1.12226112e-02 4.82521117e-01 7.09892483e-03 4.58396785e-02
      1.09857284e-02 9.29442048e-02 1.44500993e-02 1.26728708e-06
      5.40465070e-03 1.28077865e-02 4.82521117e-01 9.46523063e-03
      4.47298624e-02 1.08277164e-02 2.89500002e-02 2.46608406e-02
      3.42511795e-02 2.31805108e-02 4.32659723e-02 4.82521117e-01
      4.25935313e-02 2.67898291e-02 5.64650260e-02 2.43380629e-02
      5.12348749e-02 7.96139613e-02 3.24278921e-02 7.68466964e-02
      4.82521117e-01 5.67913651e-02 3.57197709e-02 7.52866864e-02
      3.96688133e-02 1.39538944e-01 3.44389048e-03 3.98302861e-02
      1.10459076e-02 3.00662369e-01 1.51279598e-01 2.77260363e-01
      4.94734719e-02 1.70273125e-01 3.00662369e-01 2.34056875e-01
      1.87025115e-01 1.51235042e-02 3.00662369e-01 6.78342208e-02
      1.88128158e-01 4.11475413e-02 3.00662369e-01 1.80958137e-01
      4.58585192e-03 0. 0. 1.76114231e-01 5.92035353e-02 1.21985830e-01
      2.96764821e-02 1.64502665e-01 3.00662369e-01 1.74654752e-01
      1.15823686e-01 0. 8.97804126e-02 2.91732010e-02 8.41046795e-02
      2.29341835e-02 3.00662369e-01 2.91425556e-01 2.91425556e-01
      2.91425556e-01 1.30817071e-01 2.91425556e-01 0. 1.46398041e-02
      3.76925338e-03 2.91425556e-01 3.83149721e-02 1.60063207e-01
      2.91425556e-01 1.43679455e-01 2.91425556e-01 0. 0. 0.
      3.83149721e-02 2.91425556e-01 2.76244581e-01 2.91425556e-01
      1.26645435e-02 6.08257577e-03 0. 2.43996712e-03 6.29454269e-04
      2.35117644e-01 3.15593705e-02 7.00288862e-02 1.64381221e-01
      1.68860555e-02 1.37587832e-02 0. 0. 0. 3.15593705e-02
      1.59840345e-01 1.58930257e-01 1.29913032e-01 1.47135496e-01
      4.02200937e-01 1.05878979e-01 6.65941462e-02 2.48550057e-01
      1.58419520e-01 3.18401039e-01 3.50447953e-01 8.06092322e-02
      1.91025451e-01 4.02200937e-01 1.41171947e-01 8.87921751e-02
      3.31400037e-01 2.67489076e-01 1.96375567e-02 3.12517607e-03
      2.59753224e-02 9.15124640e-03 1.25623662e-02 0. 0. 0.
      1.96375567e-02 3.55605818e-02 0. 0. 0. 0. 0. 0. 0. 3.55605818e-02</_>
    <_>
      0. 0. 0. 0. 0. 0. 0. 0. 0. 0. 1.16478410e-02 4.91472408e-02
      5.80071695e-02 5.42458408e-02 0. 0. 0. 0. 3.64800423e-01
      8.74226466e-02 2.61600882e-01 0. 3.78743291e-01 1.39557347e-01
      3.27487886e-01 1.04811803e-01 3.64800423e-01 2.06548765e-01
      6.40886575e-02 2.54215956e-01 1.13124818e-01 3.78743291e-01
      5.58229387e-02 2.13784844e-01 6.95915893e-02 2.06548765e-01
      6.73713386e-02 3.39890122e-02 1.09500550e-01 5.53187132e-02
      5.04154414e-02 0. 0. 0. 6.60173744e-02 3.00932378e-01
      1.43169791e-01 2.79785752e-01 4.14890312e-02 3.99543419e-02
      2.85774993e-04 2.17658710e-02 2.29322799e-02 3.00932378e-01
      8.22437257e-02 7.59807900e-02 2.55733848e-01 1.46670938e-01
      3.00932378e-01 0. 0. 0. 7.41199479e-02 3.00932378e-01
      2.98616886e-01 3.00932378e-01 1.77884161e-01 3.00932378e-01
      2.73551643e-02 4.53063808e-02 6.14194684e-02 3.00932378e-01
      2.89097548e-01 8.50257203e-02 1.15027599e-01 0. 7.46477321e-02
      1.83317810e-03 1.94774941e-01 1.05206206e-01 2.89097548e-01
      7.83845931e-02 3.68504552e-03 0. 0. 1.42341718e-01 2.44425284e-03
      2.15518162e-01 8.62406939e-02 8.21004212e-02 2.89097548e-01
      1.72493681e-01 1.16712242e-01 2.38174144e-02 2.89097548e-01
      1.35722131e-01 2.89097548e-01 2.22577706e-01 2.89097548e-01
      5.38745113e-02 9.21261404e-03 0. 0. 2.89097548e-01 1.34583816e-01
      2.89097548e-01 1.71478122e-01 6.31640777e-02 6.41283467e-02
      2.72136591e-02 8.14333335e-02 0. 3.66747111e-01 1.06163740e-01
      2.30304047e-01 6.25667498e-02 6.41283467e-02 3.63092534e-02
      1.25179263e-02 4.32062708e-02 6.69193966e-03 3.66747111e-01
      4.54610400e-02 1.76186711e-01 4.83214892e-02 3.63092534e-02
      1.77841987e-02 8.77230521e-03 1.35722207e-02 0. 3.66747111e-01
      8.61002803e-02 3.25004429e-01 7.41940141e-02 1.48436157e-02
      1.93746999e-01 1.45397812e-01 3.19959037e-02 0. 3.66747111e-01
      7.73907378e-02 3.55023682e-01 8.25622827e-02 1.28289849e-01
      1.15525424e-02 2.03618370e-02 7.24140182e-02 5.65329269e-02
      4.21451628e-01 1.22342268e-02 9.87120271e-02 1.33909555e-02
      8.09876528e-03 1.02164954e-01 7.86316097e-02 9.64814723e-02
      9.35034305e-02 4.21451628e-01 3.32982726e-02 8.32805261e-02
      2.63863690e-02 6.81008026e-02 1.64496943e-01 2.37579748e-01
      1.57138363e-01 3.25663835e-02 4.21451628e-01 6.17822856e-02
      1.95415139e-01 3.59063521e-02 1.11380614e-01 2.41429769e-02
      1.09450571e-01 1.46539360e-01 4.34218384e-02 4.21451628e-01
      4.18519415e-02 1.21078171e-01 2.08653603e-02 2.00766791e-02
      7.67570287e-02 4.38296795e-02 1.52201513e-02 1.86264049e-02
      4.35410976e-01 1.29653484e-01 1.63265988e-01 7.75883794e-02
      5.92162833e-02 1.40546421e-02 2.29763356e-03 0. 0. 4.35410976e-01
      1.36600539e-01 2.46611238e-01 7.36608952e-02 1.63714662e-02
      4.33052741e-02 1.56770565e-03 9.81157180e-03 6.25625392e-03
      4.35410976e-01 1.04362331e-02 1.42754003e-01 4.77060042e-02
      4.33052741e-02 1.08263202e-01 0. 0. 0. 4.35410976e-01
      1.39149725e-02 1.90338671e-01 6.36080056e-02 1.08263202e-01
      7.83272162e-02 1.44473854e-02 1.22099649e-02 0. 2.97563791e-01
      6.08609729e-02 2.79175252e-01 5.39406948e-02 7.11317286e-02
      2.97563791e-01 2.72973388e-01 1.78813100e-01 0. 2.97563791e-01
      8.23811516e-02 2.97563791e-01 5.98419011e-02 2.97563791e-01
      9.65339839e-02 9.58727952e-03 1.62799489e-02 0. 1.49611339e-01
      4.57486138e-02 1.49566248e-01 3.69257294e-02 9.36557874e-02
      2.97563791e-01 1.18149348e-01 2.03779086e-01 0. 1.25591949e-01
      3.98565345e-02 1.52440101e-01 3.89036424e-02 2.97563791e-01
      2.86759526e-01 2.86759526e-01 2.86759526e-01 1.07158102e-01
      2.86759526e-01 4.49301824e-02 8.30645487e-02 1.66531336e-02
      2.86759526e-01 1.11351900e-01 2.19645441e-01 2.86759526e-01
      1.42877445e-01 2.86759526e-01 2.23583039e-02 3.22480537e-02
      7.04184501e-03 1.03731737e-01 2.86759526e-01 1.55631080e-01
      2.65355796e-01 5.73678352e-02 5.12336008e-02 2.51985108e-03
      1.68276485e-02 4.60255984e-03 2.86759526e-01 9.25056562e-02
      5.50279506e-02 1.14385560e-01 7.64904395e-02 5.71325012e-02 0. 0.
      0. 9.12356153e-02 1.90729931e-01 2.78675687e-02 1.39502883e-01
      1.10273384e-01 3.77378553e-01 0. 3.60516310e-01 1.20478518e-01
      1.90729931e-01 3.77378553e-01 0. 0. 0. 3.77378553e-01 0.
      3.77378553e-01 1.60637990e-01 3.77378553e-01 0. 1.11470269e-02
      4.67436053e-02 5.90356253e-02 5.40103540e-02 0. 0. 0. 0. 0. 0. 0.
      0. 0. 0. 0. 0. 0.</_>
    <_>
      1.47056729e-02 0. 0. 0. 0. 0. 0. 0. 1.47056729e-02 5.88226784e-03
      1.78399570e-02 4.65446375e-02 1.38371876e-02 7.21047595e-02 0. 0.
      0. 5.88226784e-03 2.65100330e-01 0. 8.12388137e-02 1.92516759e-01
      4.22094077e-01 1.69840418e-02 1.94014236e-01 3.68162930e-01
      3.83701861e-01 1.06040128e-01 6.63723573e-02 1.90071493e-01
      9.54562724e-02 4.22094077e-01 1.05325477e-02 1.45510659e-01
      2.76122153e-01 1.94991261e-01 7.01338500e-02 5.50397299e-02
      1.10294186e-01 1.42815383e-02 7.15936422e-02 1.16423108e-02 0. 0.
      6.77775666e-02 2.89880872e-01 1.78676963e-01 2.51623452e-01
      1.07111512e-02 5.69748282e-02 2.18738392e-02 2.31004301e-02
      5.75423846e-03 2.89880872e-01 7.71721378e-02 1.95946291e-01
      2.87838787e-01 8.15803632e-02 2.89880872e-01 8.57129693e-02
      2.02297587e-02 0. 7.12814182e-02 2.89880872e-01 2.89880872e-01
      2.89880872e-01 9.76659358e-02 2.89880872e-01 1.65335327e-01
      1.07010238e-01 4.32666438e-03 2.89880872e-01 2.93752283e-01
      8.22946653e-02 9.32618901e-02 0. 1.01655617e-01 2.25683954e-02
      1.80305406e-01 5.85699230e-02 2.87122875e-01 9.01284143e-02
      2.19818694e-03 0. 0. 1.83830932e-01 1.28726624e-02 1.86396971e-01
      6.43395111e-02 8.10986310e-02 2.93752283e-01 1.60933167e-01
      1.10416025e-01 1.10824546e-02 2.93752283e-01 2.35123143e-01
      2.93752283e-01 5.74835762e-02 2.93752283e-01 6.61491305e-02
      5.49546815e-03 0. 0. 2.93752283e-01 2.19572350e-01 2.93752283e-01
      7.23076537e-02 7.83764347e-02 3.60620171e-02 0. 2.28845533e-02
      5.42309731e-02 3.83717746e-01 6.71262890e-02 1.46523699e-01
      8.03065449e-02 5.49289286e-02 1.44248074e-02 4.82663931e-03
      1.99105889e-02 2.22209450e-02 3.83717746e-01 6.21942990e-02
      1.17077619e-01 6.40486106e-02 2.85749882e-02 1.06533356e-02
      2.38265920e-06 3.81409191e-03 9.03849490e-03 3.83717746e-01
      1.10322967e-01 3.76574606e-01 3.14606689e-02 1.83503162e-02
      1.56476632e-01 8.13942701e-02 4.27756496e-02 2.58423276e-02
      3.83717746e-01 1.03034064e-01 3.58458519e-01 3.34782302e-02
      1.18466116e-01 7.49802962e-03 7.12090954e-02 8.37795883e-02
      4.62031476e-02 4.02428538e-01 1.72047541e-01 6.05759770e-02
      1.41845085e-03 6.18228363e-03 1.01077817e-01 1.54473662e-01
      1.17799573e-01 6.02030903e-02 4.02428538e-01 2.17682138e-01
      9.81295556e-02 3.50560708e-06 6.75226822e-02 1.21384561e-01
      2.05211043e-01 1.63522646e-01 1.04208760e-01 4.02428538e-01
      1.58859536e-01 9.13655981e-02 3.65963439e-03 8.22963119e-02
      7.22299144e-03 1.03175029e-01 1.24321736e-01 8.00262913e-02
      4.02428538e-01 1.35716468e-01 4.01317179e-02 0. 6.16701506e-03
      8.20945129e-02 4.78235930e-02 2.37715505e-02 1.33734271e-02
      4.09724087e-01 2.23924160e-01 2.33042493e-01 1.50292935e-02
      6.71643317e-02 6.09997474e-03 1.31165306e-03 6.89171674e-03
      1.26974797e-02 4.09724087e-01 2.46237248e-01 2.75461316e-01
      2.79853772e-02 1.25782825e-02 2.52583027e-02 4.80684498e-03
      2.73457132e-02 3.10808960e-02 4.09724087e-01 5.68219312e-02
      7.39151612e-02 8.53927359e-02 4.32541035e-02 6.31457716e-02 0.
      4.13502865e-02 7.61848539e-02 4.09724087e-01 6.99984655e-02
      1.01296619e-01 1.15182698e-01 8.71401578e-02 6.12367056e-02
      6.98278798e-03 8.83595087e-03 0. 3.01260650e-01 5.06595001e-02
      3.01260650e-01 7.48953894e-02 8.27957317e-02 3.01260650e-01
      2.23503694e-01 1.73279330e-01 3.09355780e-02 3.01260650e-01
      4.30872366e-02 3.01260650e-01 7.49102905e-02 3.01260650e-01
      8.34233910e-02 9.30415280e-03 1.17812650e-02 0. 1.44013509e-01
      1.08490093e-02 1.75275043e-01 7.60766864e-02 9.20470282e-02
      3.01260650e-01 1.51550576e-01 1.58404633e-01 6.50800252e-03
      8.19531530e-02 8.50801077e-03 1.72339112e-01 7.74471089e-02
      3.01260650e-01 2.83561409e-01 2.83561409e-01 2.83561409e-01
      1.86227590e-01 2.83561409e-01 3.60922292e-02 6.75586462e-02
      7.62593653e-03 2.83561409e-01 6.47306889e-02 2.37316445e-01
      2.83561409e-01 1.50707722e-01 2.83561409e-01 2.54701599e-02
      6.88479049e-03 0. 5.84972128e-02 2.83561409e-01 2.29413271e-01
      2.39809200e-01 4.93873209e-02 2.48797834e-02 1.64735960e-04
      1.69779137e-02 8.17524549e-03 2.83561409e-01 6.30308762e-02
      8.09264556e-02 1.19966276e-01 4.53182794e-02 4.03972417e-02 0. 0.
      0. 5.83557710e-02 1.28892511e-01 4.59541641e-02 1.50498509e-01
      8.89625251e-02 3.87932211e-01 1.20226173e-02 1.46091223e-01
      3.00792664e-01 2.06686169e-01 3.22231293e-01 0. 1.00944646e-01
      1.85983077e-01 3.87932211e-01 1.60301551e-02 1.94788277e-01
      3.87932211e-01 3.87932211e-01 7.54450401e-03 1.25682354e-02
      3.30436639e-02 1.09269740e-02 3.43575627e-02 0. 0. 0.
      7.54450401e-03 1.88612603e-02 0. 0. 0. 0. 0. 0. 0. 1.88612603e-02</_>
    <_>
      0. 0. 0. 0. 0. 0. 0. 0. 0. 0. 6.49298960e-03 4.56240512e-02
      1.36010516e-02 3.05425674e-02 0. 0. 0. 0. 3.84007990e-01
      2.59416193e-01 0. 0. 3.96338254e-01 8.28496665e-02 3.36547405e-01
      1.38068587e-01 3.22716057e-01 1.88357070e-01 1.42724395e-01
      2.13259861e-01 1.18609779e-01 3.96338254e-01 6.21372461e-02
      2.52410501e-01 1.03551425e-01 1.63840294e-01 3.94419692e-02
      6.58916607e-02 1.13124281e-01 1.25592398e-02 2.15401705e-02
      5.85416215e-04 0. 0. 2.15552822e-02 3.04613978e-01 3.04613978e-01
      2.06082970e-01 1.00965817e-02 1.85497925e-02 4.73796343e-03
      1.60790421e-02 1.70659386e-02 1.99303359e-01 4.22128476e-02
      1.61824286e-01 3.04613978e-01 1.22743979e-01 3.04613978e-01
      1.46354071e-03 0. 0. 2.32605785e-02 3.04613978e-01 3.04613978e-01
      3.04613978e-01 1.29521906e-01 3.04613978e-01 2.93012727e-02
      1.74184963e-02 3.43793407e-02 2.98243582e-01 2.84028023e-01
      2.47453213e-01 8.36087912e-02 1.84625664e-04 2.42790394e-02
      3.28173190e-02 1.87577739e-01 8.31994787e-02 2.01051250e-01
      6.83033466e-02 5.37822247e-02 1.27114998e-02 0. 6.47393018e-02
      6.01955168e-02 2.52870768e-01 7.81852454e-02 6.69059232e-02
      2.93330431e-01 2.93330431e-01 1.22838251e-01 1.12556368e-02
      2.93330431e-01 1.54190958e-01 2.26677582e-01 1.30273938e-01
      2.54183352e-01 5.57470880e-02 7.37879649e-02 1.06377294e-02 0.
      2.93330431e-01 2.18504772e-01 2.93330431e-01 1.11246943e-01
      5.43810800e-02 5.74404225e-02 6.11860380e-02 0. 0. 4.68019783e-01
      3.46030407e-02 9.60069001e-02 3.25649306e-02 4.29840684e-02
      2.76052002e-02 2.74047293e-02 1.57054849e-02 1.27135441e-02
      4.68019783e-01 2.59522814e-02 7.20051751e-02 2.44236942e-02
      2.18226612e-02 1.95116214e-02 3.22741792e-02 2.37109396e-03 0.
      4.68019783e-01 7.72034004e-02 6.61321580e-02 3.24333757e-02
      1.71022303e-02 1.62913531e-01 1.54305950e-01 7.27712438e-02
      1.72275174e-02 4.68019783e-01 7.54065216e-02 3.88018638e-02
      3.71935926e-02 1.10959820e-01 3.90450889e-03 3.89715582e-02
      1.10463649e-01 6.01031706e-02 4.46024895e-01 2.76760140e-04 0. 0.
      2.30929023e-03 8.58896598e-02 1.18815109e-01 1.56329557e-01
      6.66087791e-02 4.46024895e-01 2.13242806e-02 1.44777761e-03
      7.16867577e-03 5.17000966e-02 9.69787687e-02 1.46696419e-01
      2.24384516e-01 8.19242671e-02 4.46024895e-01 7.45903328e-03
      6.27294241e-04 3.85850063e-03 5.97996525e-02 3.92857613e-03
      5.16337976e-02 1.69785753e-01 7.52929375e-02 4.46024895e-01
      8.34066700e-03 0. 0. 2.81124306e-03 8.49683657e-02 7.97220618e-02
      4.05375324e-02 8.76478758e-03 4.68374223e-01 1.23844765e-01
      4.02442552e-02 3.35876606e-02 5.78181669e-02 8.17617588e-03
      1.56410839e-02 2.15524547e-02 0. 4.68374223e-01 1.29719630e-01
      6.59718141e-02 2.74486467e-02 8.54540151e-03 5.34194335e-02
      1.08887246e-02 6.61889762e-02 9.70059726e-03 4.68374223e-01
      3.95351313e-02 6.05301075e-02 3.08772251e-02 4.97179925e-02
      9.56258625e-02 2.05972325e-02 1.26897007e-01 0. 4.68374223e-01
      2.96513438e-02 8.07067975e-02 4.11696285e-02 8.63722563e-02
      8.63508359e-02 8.55863020e-02 1.73773617e-02 0. 2.96914428e-01
      1.68246403e-01 1.90084353e-01 8.87299553e-02 1.10617764e-01
      2.96914428e-01 2.96914428e-01 1.76291972e-01 1.38113284e-02
      2.96914428e-01 1.26876563e-01 1.01817206e-01 9.57342684e-02
      2.96914428e-01 1.22983068e-01 6.41440079e-02 1.78027488e-02 0.
      1.11922368e-01 1.06603466e-01 1.56426191e-01 5.64308576e-02
      1.55338958e-01 2.96914428e-01 2.96914428e-01 1.16932072e-01
      2.86151015e-04 4.82971109e-02 5.68986312e-02 8.95543620e-02
      5.23717701e-02 2.96914428e-01 3.03478479e-01 3.03478479e-01
      3.03478479e-01 1.33005545e-01 3.03478479e-01 1.84411258e-02
      2.12955126e-03 1.53692057e-02 2.78154075e-01 4.79073189e-02
      1.69588387e-01 3.03478479e-01 1.32486820e-01 3.03478479e-01
      1.52807776e-03 0. 0. 2.19798330e-02 3.03478479e-01 3.03478479e-01
      2.22921178e-01 1.69959310e-02 2.09982656e-02 3.96489957e-03
      7.40089919e-04 6.14768127e-03 1.99402750e-01 5.06418571e-02
      7.40375817e-02 1.24915048e-01 2.16383841e-02 2.55866591e-02
      6.11231022e-04 0. 0. 2.06691492e-02 2.57390618e-01 4.48165275e-02
      2.60658383e-01 6.75757378e-02 3.81337613e-01 0. 1.63932070e-01
      8.36239606e-02 2.39639267e-01 3.81337613e-01 5.57829253e-02
      3.43671679e-01 0. 3.81337613e-01 0. 2.18576029e-01 1.11498594e-01
      3.81337613e-01 4.60206968e-04 3.75055918e-03 2.28975024e-02
      1.23646148e-02 1.82657111e-02 0. 0. 0. 4.60206968e-04
      6.13609212e-04 0. 0. 0. 0. 0. 0. 0. 6.13609212e-04</_>
    <_>
      1.25136254e-02 0. 0. 0. 0. 0. 0. 0. 1.25136254e-02 8.59908387e-03
      1.08757187e-02 5.11127487e-02 0. 2.67760716e-02 0. 0. 0.
      8.59908387e-03 3.72958481e-01 2.32501477e-01 2.72885859e-01 0.
      4.09999609e-01 9.12993997e-02 2.48959810e-01 1.81374850e-03
      3.06173563e-01 2.05104411e-01 1.31864414e-01 2.91803032e-01 0.
      4.09999609e-01 6.84745386e-02 1.55666143e-01 7.25499354e-04
      2.24913388e-01 4.61671352e-02 5.43453880e-02 1.56137049e-01 0.
      2.52118949e-02 0. 0. 0. 1.87473744e-02 3.13273072e-01
      2.11433709e-01 3.02721232e-01 0. 1.97853539e-02 2.15065852e-03
      9.23428871e-03 2.58160103e-03 2.18174770e-01 6.34471253e-02
      1.08945668e-01 3.13273072e-01 0. 3.13273072e-01 0. 0. 0.
      4.28823084e-02 3.13273072e-01 2.76151568e-01 3.13273072e-01 0.
      3.13273072e-01 1.29039483e-02 2.83678658e-02 6.45400304e-03
      3.13273072e-01 3.45928699e-01 1.05606847e-01 9.50034708e-02 0.
      6.11318834e-02 8.38233996e-03 1.36668324e-01 4.37064655e-02
      2.72500217e-01 1.54837430e-01 5.72126824e-03 5.43035287e-03 0.
      1.91270635e-01 6.28675381e-03 2.23799914e-01 7.33157545e-02
      1.20173186e-01 3.45928699e-01 1.28857017e-01 1.68528080e-01 0.
      3.45928699e-01 5.02940193e-02 1.99794993e-01 5.49737848e-02
      2.80704826e-01 1.21105015e-01 1.43031711e-02 1.35758836e-02 0.
      3.45928699e-01 3.77205089e-02 2.64832914e-01 7.96568766e-02
      7.90698230e-02 6.94087967e-02 5.47413304e-02 9.85669941e-02 0.
      4.16248143e-01 3.29775549e-02 2.36878470e-01 3.65921552e-03
      5.57861887e-02 3.72557268e-02 2.54280884e-02 5.60240932e-02 0.
      4.16248143e-01 2.47331634e-02 1.15008421e-01 1.46368600e-03
      4.12963070e-02 1.82519313e-02 6.24077395e-03 2.30354760e-02 0.
      4.16248143e-01 1.46597289e-02 2.92103857e-01 1.41573828e-02
      1.86241660e-02 2.03119501e-01 3.86615917e-02 9.44411382e-02
      4.17068228e-03 4.16248143e-01 8.85605160e-03 2.05370143e-01
      1.46799758e-02 1.51885197e-01 9.59143601e-03 2.34467499e-02
      9.05655324e-02 0. 4.68197644e-01 0. 0. 0. 9.59143601e-03
      1.00828789e-01 3.95379961e-02 1.26885086e-01 0. 4.68197644e-01
      4.73257387e-03 7.32090930e-03 1.33670506e-03 7.52607882e-02
      1.23966448e-01 5.78678511e-02 1.71300396e-01 1.81963015e-02
      4.68197644e-01 1.53765272e-04 1.13538280e-02 1.23191916e-03
      9.07735378e-02 1.34763252e-02 4.03386578e-02 1.30343720e-01
      1.67051107e-02 4.68197644e-01 0. 0. 0. 1.18760364e-02
      8.79875720e-02 1.85590554e-02 3.87908593e-02 5.69083495e-03
      4.83939618e-01 2.65917871e-02 4.64644544e-02 7.74142193e-03
      5.66814281e-02 1.15021886e-02 3.56335123e-03 7.04104034e-03
      1.42270895e-02 4.83939618e-01 2.25129295e-02 4.70790528e-02
      8.38657003e-03 5.79461083e-03 3.38298455e-02 2.27562748e-02
      2.00403556e-02 3.52077857e-02 4.83939618e-01 2.64249276e-02
      4.63769659e-02 6.30306378e-02 1.68638881e-02 7.67641366e-02
      4.77153435e-02 2.19532587e-02 8.53625089e-02 4.83939618e-01
      3.52332368e-02 6.18359447e-02 8.40408280e-02 3.02304793e-02
      9.18834209e-02 1.91654582e-02 1.88486893e-02 0. 2.82017142e-01
      4.26892005e-02 2.82017142e-01 8.94926935e-02 8.60215873e-02
      2.82017142e-01 2.09921122e-01 2.68498778e-01 4.24122578e-03
      2.82017142e-01 1.84785016e-02 2.82017142e-01 9.98702124e-02
      2.82017142e-01 1.18862860e-01 1.80906374e-02 1.07934568e-02 0.
      1.19856589e-01 3.59080285e-02 1.91744938e-01 9.59064439e-02
      1.10239372e-01 2.82017142e-01 2.03779578e-01 1.82279065e-01
      4.39922122e-04 5.47870547e-02 1.45970145e-02 1.75705552e-01
      1.04121305e-01 2.82017142e-01 3.06458980e-01 2.85000473e-01
      3.06458980e-01 2.65222695e-02 3.06458980e-01 3.13856435e-04
      3.27619612e-02 1.17596081e-02 3.06458980e-01 6.92172199e-02
      1.28718704e-01 3.06458980e-01 2.34164316e-02 3.06458980e-01 0. 0.
      0. 5.57177290e-02 3.06458980e-01 2.11343303e-01 3.06458980e-01
      2.12427927e-03 2.24572308e-02 5.23093986e-05 1.29879816e-02
      1.15236249e-02 2.36529991e-01 5.02428077e-02 5.74385859e-02
      1.66766301e-01 1.59320934e-03 3.11707146e-02 0. 0. 0.
      3.76420207e-02 1.94678649e-01 1.19428001e-01 1.36094034e-01
      8.97982493e-02 4.05433714e-01 6.58648759e-02 1.15595885e-01
      2.78201818e-01 1.19795077e-01 4.05433714e-01 2.10603863e-01
      5.47191054e-02 2.12768406e-01 4.05433714e-01 8.78198147e-02
      1.54127836e-01 3.70935708e-01 2.20262870e-01 1.73688158e-02
      9.34936665e-03 3.30828242e-02 0. 2.08119340e-02 0. 0. 0.
      1.73688158e-02 3.32477726e-02 0. 0. 0. 0. 0. 0. 0. 3.32477726e-02</_>
    <_>
      0. 0. 0. 0. 0. 0. 0. 0. 0. 0. 6.16549607e-03 6.28427714e-02
      5.42012835e-03 4.40664142e-02 0. 0. 0. 0. 3.36778551e-01
      2.77852621e-02 3.17567050e-01 4.79375049e-02 4.08253253e-01
      5.56371845e-02 6.69059902e-02 2.55762398e-01 3.36778551e-01
      1.98152915e-01 4.81070690e-02 3.48706782e-01 9.68628898e-02
      4.08253253e-01 4.17278819e-02 5.01794815e-02 1.91821769e-01
      1.98152915e-01 3.48429233e-02 6.72980770e-02 1.38433516e-01
      1.18950214e-02 2.79882029e-02 0. 0. 0. 3.48429233e-02
      2.73179412e-01 3.17667961e-01 2.07666278e-01 1.31543381e-02
      2.77024638e-02 5.56461932e-03 2.10167770e-03 3.52125019e-02
      2.11996913e-01 3.98184732e-02 1.43956095e-01 3.17667961e-01
      8.93789008e-02 3.17667961e-01 0. 0. 0. 3.98184732e-02
      3.17667961e-01 3.17667961e-01 3.17667961e-01 8.59381407e-02
      3.17667961e-01 5.01255766e-02 9.29603353e-03 5.71113490e-02
      2.30975837e-01 2.95839190e-01 2.80728102e-01 5.15626743e-02
      1.29116676e-03 1.43023416e-01 3.35863158e-02 8.88189599e-02
      1.31835938e-01 2.08714038e-01 9.40104574e-02 2.82228924e-02
      2.20205402e-03 0. 2.37778306e-01 3.27142179e-02 1.13585785e-01
      9.53286514e-02 7.27931485e-02 3.07427227e-01 3.51301670e-01
      1.43204555e-01 6.03700615e-03 3.51301670e-01 1.75082996e-01
      1.20197318e-01 1.70213550e-01 1.73871890e-01 5.70515431e-02
      3.02594248e-02 5.50513482e-03 0. 3.51301670e-01 1.22144796e-01
      1.48936942e-01 1.00031130e-01 4.05137166e-02 4.93981019e-02
      7.21686566e-03 8.24839696e-02 2.20484380e-02 4.71991450e-01
      2.55898368e-02 1.73779726e-02 6.64310083e-02 4.93981019e-02
      2.90647317e-02 5.95094310e-03 4.73542251e-02 1.88608039e-02
      4.71991450e-01 1.91923771e-02 1.30334785e-02 4.98232469e-02
      2.90647317e-02 2.83447355e-02 1.19501976e-02 1.61941014e-02
      8.81937426e-03 4.71991450e-01 3.85356545e-02 7.41429254e-02
      2.23857649e-02 1.20115494e-02 2.08304465e-01 1.24335296e-01
      4.93153296e-02 3.00330911e-02 4.71991450e-01 3.53079401e-02
      4.42474931e-02 2.33891178e-02 6.63066581e-02 4.34900075e-03
      3.30837630e-02 1.10142410e-01 4.14634235e-02 4.55213130e-01 0. 0.
      0. 4.34900075e-03 6.62916452e-02 1.18469186e-01 1.84123695e-01
      3.81133221e-02 4.55213130e-01 4.05455902e-02 1.28797013e-02
      8.39001406e-03 3.15071233e-02 1.37469292e-01 1.14105396e-01
      1.44039512e-01 1.06086910e-01 4.55213130e-01 2.29058741e-03
      2.20140768e-03 1.71221932e-03 4.71497178e-02 1.54593969e-02
      3.95742506e-02 1.31358534e-01 9.21678096e-02 4.55213130e-01
      2.95090079e-02 1.68719422e-02 0. 8.43194406e-03 7.12147579e-02
      8.20318311e-02 8.06201696e-02 5.87800937e-03 4.21730340e-01
      2.18151182e-01 1.22453392e-01 2.77602114e-02 3.36114503e-02
      9.63243190e-03 3.53819691e-03 5.47229536e-02 6.49819942e-03
      4.21730340e-01 1.62085131e-01 1.69065699e-01 1.11040836e-02
      9.28797480e-03 7.16526210e-02 3.06488317e-03 7.03741685e-02
      1.93379447e-02 4.21730340e-01 1.76794142e-01 1.30787849e-01 0.
      7.16526210e-02 9.55368206e-02 0. 1.33058369e-01 1.62454993e-02
      4.21730340e-01 1.39418676e-01 1.53975397e-01 0. 9.55368206e-02
      1.36857703e-01 3.21292542e-02 5.57115907e-03 0. 3.01462144e-01
      6.44965544e-02 2.47145206e-01 4.28993180e-02 1.07328892e-01
      3.01462144e-01 3.01462144e-01 1.44411698e-01 2.23303679e-02
      3.01462144e-01 5.27709089e-02 1.47720501e-01 4.72018234e-02
      3.01462144e-01 1.65830731e-01 1.97797082e-02 2.22846330e-03 0.
      1.58095136e-01 3.33676189e-02 1.73769757e-01 3.31553444e-02
      1.62248999e-01 3.01462144e-01 2.69325197e-01 1.06619962e-01
      1.81121274e-03 7.77395964e-02 2.29803566e-02 1.05805546e-01
      3.08774393e-02 3.01462144e-01 2.92757899e-01 2.92757899e-01
      2.92757899e-01 1.90762699e-01 2.92757899e-01 4.90888767e-03
      8.35420378e-03 6.49776403e-03 2.62795627e-01 7.63875693e-02
      1.36577740e-01 2.92757899e-01 1.84215322e-01 2.92757899e-01
      1.24121876e-02 7.80682871e-03 0. 4.78716381e-02 2.92757899e-01
      2.92757899e-01 2.40305036e-01 3.66311595e-02 2.29010414e-02
      8.18147790e-04 3.34168132e-03 2.59910547e-03 2.41523683e-01
      5.66804335e-02 7.10973963e-02 1.20785907e-01 4.26790491e-02
      3.07022631e-02 0. 0. 0. 3.62295695e-02 3.18718761e-01
      2.63592955e-02 2.11674914e-01 1.17556371e-01 3.54498029e-01
      2.91850477e-01 1.83563650e-01 0. 3.18718761e-01 3.54498029e-01 0.
      2.06090167e-01 2.51621734e-02 3.54498029e-01 2.18887821e-01
      1.37672737e-01 0. 3.54498029e-01 1.06464978e-02 4.39321529e-03
      1.99626870e-02 2.65051518e-02 2.65462641e-02 0. 0. 0.
      1.06464978e-02 1.41953286e-02 0. 0. 0. 0. 0. 0. 0. 1.41953286e-02</_>
    <_>
      0. 0. 0. 0. 0. 0. 0. 0. 0. 0. 6.16549607e-03 6.28427714e-02
      5.42012835e-03 4.40664142e-02 0. 0. 0. 0. 3.36778551e-01
      2.77852621e-02 3.17567050e-01 4.79375049e-02 4.08253253e-01
      5.56371845e-02 6.69059902e-02 2.55762398e-01 3.36778551e-01
      1.98152915e-01 4.81070690e-02 3.48706782e-01 9.68628898e-02
      4.08253253e-01 4.17278819e-02 5.01794815e-02 1.91821769e-01
      1.98152915e-01 3.39903980e-02 6.60963878e-02 1.34481400e-01
      1.16039785e-02 2.73033958e-02 0. 0. 0. 3.39903980e-02
      3.02376658e-01 3.05191338e-01 1.96408570e-01 1.28324814e-02
      1.84050873e-02 6.13139290e-03 7.21727405e-03 1.72362085e-02
      2.35864699e-01 3.88442054e-02 1.40767515e-01 3.05191338e-01
      8.71920064e-02 3.05191338e-01 0. 0. 0. 3.88442054e-02
      3.05191338e-01 3.05191338e-01 3.05191338e-01 8.38354379e-02
      3.05191338e-01 3.63850705e-02 2.61992216e-02 1.29271559e-02
      3.05191338e-01 2.99036831e-01 2.71859020e-01 4.86343689e-02
      1.30845211e-03 9.65661556e-02 4.24697101e-02 1.10846087e-01
      9.22913700e-02 2.45209455e-01 1.11711867e-01 3.62665094e-02
      2.23153341e-03 0. 1.97561085e-01 4.19428386e-02 1.30168959e-01
      8.00810531e-02 8.20637941e-02 2.99036831e-01 2.99036831e-01
      1.38653859e-01 6.11782586e-03 2.99036831e-01 1.76705733e-01
      2.17196763e-01 6.92185238e-02 2.62671798e-01 9.38391760e-02
      4.88727018e-02 5.57883456e-03 0. 2.99036831e-01 1.73362762e-01
      2.78248101e-01 6.00607842e-02 5.58753945e-02 5.18423505e-02
      7.57396035e-03 8.65653306e-02 2.31394097e-02 4.29291308e-01
      3.49163897e-02 2.33075246e-02 6.97180554e-02 5.18423505e-02
      3.05028725e-02 6.24539936e-03 4.96973470e-02 1.97940469e-02
      4.29291308e-01 3.08891647e-02 2.04379521e-02 5.22885323e-02
      3.05028725e-02 8.05042777e-03 7.32094608e-03 1.69953946e-02
      9.25576314e-03 4.29291308e-01 2.15499461e-01 2.21972317e-01
      2.07648687e-02 1.57925971e-02 1.66771740e-01 1.07770801e-01
      6.41810670e-02 3.15191485e-02 4.29291308e-01 2.26643637e-01
      1.71501711e-01 3.15777399e-02 7.99566433e-02 4.37410315e-03
      3.32747176e-02 1.10778145e-01 4.17027436e-02 4.58639920e-01
      1.16902788e-03 7.35277368e-04 0. 4.37410315e-03 8.94894823e-02
      1.00456305e-01 1.83812439e-01 3.83333117e-02 4.58639920e-01
      2.80408002e-02 1.73302796e-02 0. 5.00993617e-02 1.28276229e-01
      1.06412224e-01 1.43066332e-01 9.28861946e-02 4.58639920e-01
      2.18953621e-02 1.36122722e-02 4.40385891e-03 4.94179726e-02
      1.55486278e-02 3.98026705e-02 1.19703934e-01 7.42824078e-02
      4.58639920e-01 1.07131861e-02 6.73821615e-03 0. 8.48061219e-03
      1.14414968e-01 7.03150854e-02 8.87893885e-02 5.85240871e-03
      3.95107478e-01 1.90505251e-01 1.79267570e-01 0. 6.25477582e-02
      2.18427442e-02 8.43445398e-03 7.93735236e-02 6.46989839e-03
      3.95107478e-01 1.96226612e-01 2.76396126e-01 0. 1.57286879e-02
      7.31075704e-02 3.40737333e-03 1.27465978e-01 1.57891344e-02
      3.95107478e-01 8.54627192e-02 6.09353930e-02 0. 7.31075704e-02
      9.74767581e-02 8.89596413e-04 2.81812221e-01 1.61747448e-02
      3.95107478e-01 8.56502280e-02 8.39447603e-02 0. 9.74767581e-02
      8.14152062e-02 2.01855749e-02 5.88647928e-03 0. 2.68894464e-01
      2.68894464e-01 2.50340194e-01 6.17625117e-02 1.13377407e-01
      2.68894464e-01 2.68894464e-01 1.91966847e-01 2.35942379e-02
      2.68894464e-01 2.44964212e-01 1.98199719e-01 9.62452590e-02
      2.68894464e-01 1.31488517e-01 1.39513249e-02 2.35459139e-03 0.
      1.32856458e-01 1.04131579e-01 9.52410474e-02 6.27833381e-02
      1.57539949e-01 2.68894464e-01 2.47615397e-01 1.38578117e-01
      1.91372505e-03 6.52967989e-02 7.34226331e-02 7.88089335e-02
      7.94103146e-02 2.68894464e-01 2.94613630e-01 2.94613630e-01
      2.94613630e-01 1.31157979e-01 2.94613630e-01 3.07075623e-02
      2.11598203e-02 2.11283043e-02 2.70556390e-01 7.32509345e-02
      1.30969569e-01 2.94613630e-01 1.07622258e-01 2.94613630e-01 0. 0.
      0. 4.59059328e-02 2.94613630e-01 2.94613630e-01 2.81092465e-01
      1.40825612e-02 2.93582957e-02 3.96558084e-03 3.96562368e-03
      1.32991960e-02 2.46584445e-01 5.43530174e-02 6.81779906e-02
      1.50414124e-01 1.28673036e-02 3.93050574e-02 0. 0. 0.
      3.47419083e-02 2.89168775e-01 2.88628247e-02 3.69047344e-01
      6.61514476e-02 3.69047344e-01 2.71214340e-02 0. 0. 2.89168775e-01
      3.69047344e-01 2.58713868e-03 3.69047344e-01 2.65641510e-02
      3.69047344e-01 3.61619070e-02 0. 0. 3.69047344e-01 0.
      4.63799480e-03 5.01141362e-02 4.42410028e-03 3.71904857e-02 0. 0.
      0. 0. 0. 0. 0. 0. 0. 0. 0. 0. 0.</_>
    <_>
      3.33354250e-02 0. 0. 0. 3.99997411e-03 0. 0. 0. 5.45988865e-02
      1.37830535e-02 2.26217695e-03 3.19777057e-02 2.24512778e-02
      3.45807970e-02 0. 0. 0. 2.97306515e-02 2.30314255e-01
      2.79222369e-01 0. 0. 4.50804055e-01 1.30729944e-01 3.79697591e-01
      1.00302726e-01 3.11421603e-01 9.48190093e-02 1.25261992e-01
      1.33172959e-01 1.13988541e-01 4.50804055e-01 1.00524202e-01
      2.84773201e-01 7.52270296e-02 1.71915188e-01 4.59919572e-02
      7.10291117e-02 1.19770929e-01 4.75991666e-02 3.63178626e-02 0. 0.
      0. 3.24373618e-02 3.04209650e-01 1.93646178e-01 2.13593215e-01
      4.75988761e-02 2.70029046e-02 2.22849473e-03 0. 4.53978637e-03
      2.63284594e-01 7.37923682e-02 9.97475237e-02 2.96229839e-01
      2.10921824e-01 3.04209650e-01 2.22445407e-04 0. 0. 4.07478809e-02
      3.04209650e-01 2.41101503e-01 3.04209650e-01 2.26134598e-01
      3.04209650e-01 3.15996297e-02 0. 2.31556427e-02 3.04209650e-01
      3.54183406e-01 6.40649647e-02 4.57690954e-02 3.40604177e-03
      6.70398623e-02 8.60439334e-03 1.00805365e-01 5.18839806e-02
      3.16266775e-01 1.49090514e-01 6.52452419e-03 0. 0. 2.04163328e-01
      6.45329384e-03 1.93798929e-01 8.69277194e-02 1.44235104e-01
      3.54183406e-01 9.18991193e-02 6.22284859e-02 2.06146613e-02
      3.54183406e-01 1.22008622e-01 9.01576281e-02 9.02727246e-02
      3.38890642e-01 1.20503925e-01 1.63113084e-02 0. 0. 3.54183406e-01
      9.15064588e-02 1.81733221e-01 9.87120345e-02 1.28149346e-01
      2.86047366e-02 5.41672371e-02 0. 0. 4.40998048e-01 7.87300169e-02
      8.56821239e-02 1.94580462e-02 3.35658640e-02 1.17369508e-02
      2.31538434e-02 1.28142796e-02 1.57595277e-02 4.40998048e-01
      7.96274766e-02 6.43360913e-02 1.45935342e-02 1.86132323e-02
      2.12884787e-02 6.65139221e-03 0. 0. 4.40998048e-01 2.60671973e-01
      5.15475050e-02 2.84534916e-02 1.47069329e-02 1.73331663e-01
      6.70457855e-02 6.65055960e-02 1.76514108e-02 4.40998048e-01
      2.49912307e-01 2.77066566e-02 6.28254563e-02 9.04432535e-02
      1.37679735e-02 1.62876863e-02 7.62149543e-02 8.64695087e-02
      4.54523474e-01 6.03530323e-03 2.18499117e-05 0. 5.33212768e-03
      1.35509700e-01 3.22524346e-02 9.11646336e-02 9.50552076e-02
      4.54523474e-01 2.73389574e-02 0. 7.82892667e-03 5.97011708e-02
      1.08468533e-01 8.91075656e-02 2.05997095e-01 1.15233988e-01
      4.54523474e-01 2.62301862e-02 1.31099427e-04 1.34680364e-02
      6.02974035e-02 7.70322932e-03 3.10712047e-02 1.40558600e-01
      1.15679339e-01 4.54523474e-01 7.01057352e-03 0. 0. 5.36405481e-03
      1.07401937e-01 1.54070454e-02 1.21438699e-02 1.07420646e-02
      4.75167990e-01 1.27796710e-01 8.72586854e-03 2.21250635e-02
      6.54870644e-02 1.22378198e-02 3.77169088e-03 0. 0. 4.75167990e-01
      9.99116376e-02 1.67022813e-02 1.28097879e-02 1.76223423e-02
      1.87291056e-02 3.39910872e-02 1.10737309e-02 1.27689317e-02
      4.75167990e-01 7.27870092e-02 8.70748907e-02 2.03125328e-02
      2.91141532e-02 4.57087308e-02 8.18072632e-02 0. 0. 4.75167990e-01
      7.89750293e-02 1.16099827e-01 2.70833708e-02 5.32013364e-02
      1.19758628e-01 1.82603039e-02 0. 0. 2.88241029e-01 2.30058566e-01
      2.70349801e-01 1.20085537e-01 7.98506215e-02 2.88241029e-01
      2.06526071e-01 1.78096846e-01 2.52190437e-02 2.88241029e-01
      1.69312209e-01 1.51931390e-01 1.84204862e-01 2.88241029e-01
      1.42125338e-01 7.30412174e-03 0. 0. 8.26615021e-02 3.72374728e-02
      2.32456252e-01 1.03606984e-01 1.05922125e-01 2.88241029e-01
      1.35794401e-01 1.31077826e-01 5.73497638e-03 3.56853530e-02
      1.48949884e-02 1.37349382e-01 1.26366898e-01 2.88241029e-01
      2.86292464e-01 2.86292464e-01 2.86292464e-01 2.23091751e-01
      2.86292464e-01 1.89085864e-02 2.47443357e-04 3.99080105e-02
      2.86292464e-01 6.75473511e-02 1.04305409e-01 2.86292464e-01
      2.23010734e-01 2.86292464e-01 0. 0. 0. 5.23686670e-02
      2.86292464e-01 2.06678182e-01 2.65895814e-01 5.57650030e-02
      2.80092619e-02 0. 2.14569038e-04 1.98689699e-02 2.73729652e-01
      6.24301471e-02 5.38363867e-02 1.21909536e-01 5.66889308e-02
      4.10235822e-02 0. 0. 0. 5.10461368e-02 1.10907234e-01
      1.30752698e-01 8.45451429e-02 7.02906772e-02 4.20055717e-01
      8.82685855e-02 2.82792836e-01 7.59515092e-02 1.95366398e-01
      2.69891709e-01 3.05889219e-01 0. 0. 4.20055717e-01 1.17691420e-01
      3.77057076e-01 1.01268671e-01 3.58744949e-01 1.64809376e-02
      1.39950041e-03 2.07323581e-02 1.55840255e-02 2.47485600e-02 0. 0.
      0. 3.39516066e-02 3.99729572e-02 0. 0. 0. 5.15912939e-03 0. 0. 0.
      6.32671714e-02</_>
    <_>
      5.17990515e-02 9.30370018e-02 2.96291560e-02 0. 0. 0. 0. 0.
      2.38709785e-02 3.21197480e-01 1.69460669e-01 2.53792722e-02
      8.86054616e-03 0. 0. 9.00017936e-03 1.49595952e-02 1.41612977e-01
      2.09665313e-01 3.21197480e-01 2.41313830e-01 4.71259132e-02
      3.21197480e-01 7.20328745e-03 1.80738699e-02 0. 1.33274123e-01
      3.21197480e-01 3.21197480e-01 3.21197480e-01 3.06644216e-02
      2.80844688e-01 7.53883366e-03 7.08993897e-02 6.76722080e-02
      3.21197480e-01 2.34770864e-01 6.42276332e-02 5.86867258e-02
      2.95011010e-02 0. 0. 2.98963897e-02 2.84542833e-02 1.46428838e-01
      2.61136264e-01 2.02456608e-01 1.63277134e-01 2.51957215e-02
      7.65344081e-03 4.99814469e-03 4.09119092e-02 2.36787274e-02
      2.61136264e-01 2.61136264e-01 2.13728920e-01 1.54187143e-01
      8.10782164e-02 2.61136264e-01 5.90691157e-02 1.81961998e-01
      1.21600986e-01 2.61136264e-01 2.61136264e-01 2.61136264e-01
      1.99476197e-01 1.09300472e-01 2.61136264e-01 9.48796198e-02
      1.79202139e-01 7.80492947e-02 2.61136264e-01 2.87438244e-01
      1.60903752e-01 8.29235241e-02 1.21008931e-03 1.06192417e-01
      2.65760347e-02 1.69611171e-01 6.66813478e-02 2.87438244e-01
      9.67195705e-02 6.58866717e-03 3.32224910e-04 0. 1.76572725e-01
      1.99320223e-02 1.77440196e-01 6.59915730e-02 9.68194306e-02
      2.87438244e-01 2.87438244e-01 9.16661918e-02 2.03798320e-02
      2.87438244e-01 1.63679346e-01 2.87438244e-01 8.98724273e-02
      2.87438244e-01 7.23994896e-02 1.64716691e-02 8.30562320e-04 0.
      2.87438244e-01 1.65425241e-01 2.87438244e-01 7.66150951e-02
      8.33879411e-02 8.13957602e-02 1.19588792e-01 1.13215439e-01
      2.59924699e-02 3.36031407e-01 8.39505494e-02 9.10504237e-02 0.
      6.63095936e-02 3.26920301e-01 2.32005343e-01 1.92459196e-01
      1.15704834e-02 3.36031407e-01 7.98047334e-02 1.06430769e-01
      2.58965213e-02 2.28349984e-01 1.09575680e-02 9.54976492e-03
      8.97173211e-03 0. 3.36031407e-01 2.49652043e-01 1.38723284e-01
      1.35347871e-02 1.69448927e-02 1.16205789e-01 1.19377047e-01
      2.16443948e-02 1.71403289e-02 3.36031407e-01 2.54381448e-01
      1.82379425e-01 3.52669358e-02 1.11199766e-01 1.97084337e-01
      8.67420211e-02 7.09040388e-02 2.96163242e-02 3.22285593e-01
      7.58685991e-02 1.43767267e-01 6.16095550e-02 1.15755849e-01
      1.08042784e-01 9.52637419e-02 3.67622226e-02 5.15661463e-02
      3.22285593e-01 9.14102942e-02 1.38588741e-01 3.52752469e-02
      6.39969558e-02 1.12248763e-01 1.52641982e-01 3.14936452e-02
      7.02392906e-02 3.22285593e-01 3.97103988e-02 2.57590115e-01
      9.75630134e-02 8.90349820e-02 2.61222541e-01 2.03421667e-01
      7.01478198e-02 5.76874316e-02 3.22285593e-01 1.42383547e-02
      3.17383826e-01 2.11087972e-01 1.92861274e-01 5.68601936e-02
      6.93540424e-02 1.97703019e-02 1.05238259e-02 3.31778318e-01
      1.05866261e-01 1.72963485e-01 1.21992100e-02 4.93569747e-02
      7.90486950e-03 1.77633706e-02 1.34781320e-02 0. 3.31778318e-01
      1.21941358e-01 2.51729250e-01 1.04246186e-02 1.10877557e-02
      3.05329055e-01 2.99276441e-01 1.96755812e-01 1.09872380e-02
      3.31778318e-01 8.34615007e-02 9.87824798e-02 6.39437884e-02
      2.24754497e-01 1.02409579e-01 1.85481176e-01 2.36272499e-01
      2.33093668e-02 3.31778318e-01 1.10106990e-01 1.08288974e-01
      2.09839758e-03 8.38381201e-02 6.82196841e-02 1.81040857e-02
      9.12874821e-04 0. 3.13860685e-01 1.12682767e-01 1.93326071e-01
      7.99098536e-02 8.44857842e-02 3.13860685e-01 2.79509991e-01
      9.98544917e-02 1.48502272e-02 3.13860685e-01 1.24808766e-01
      2.11252138e-01 1.16440974e-01 3.13860685e-01 1.03145219e-01
      7.24163279e-03 3.65149899e-04 0. 1.81159139e-01 0. 1.84103519e-01
      7.08985701e-02 1.09651662e-01 3.13860685e-01 1.17559686e-01
      1.10544972e-01 0. 1.29886508e-01 0. 1.76115915e-01 8.22906196e-02
      3.13860685e-01 2.53026932e-01 2.53026932e-01 2.01091394e-01
      9.81537998e-02 1.70299172e-01 1.37709463e-02 1.86018854e-01
      1.21765785e-01 2.53026932e-01 2.53026932e-01 2.53026932e-01
      1.65938511e-01 9.85816792e-02 1.32402599e-01 0. 2.32979119e-01
      2.52735019e-01 2.53026932e-01 2.53026932e-01 1.45649806e-01
      2.00088382e-01 3.20995711e-02 8.44509155e-03 0. 3.26882228e-02
      3.06679141e-02 2.53026932e-01 2.30156779e-01 8.52813050e-02
      9.89022627e-02 4.27994244e-02 0. 0. 2.30023265e-02 4.45043780e-02
      2.11967260e-01 3.04690808e-01 3.04690808e-01 3.04690808e-01
      3.85753661e-02 2.42510363e-01 7.58034587e-02 6.42950609e-02
      1.22442387e-01 3.04690808e-01 2.52447933e-01 3.04690808e-01
      3.04690808e-01 6.18409961e-02 3.04690808e-01 1.01071268e-01 0. 0.
      1.98022842e-01 2.75015324e-01 1.15613461e-01 7.55778402e-02
      1.45019572e-02 5.60613535e-03 0. 3.15190922e-03 1.68639142e-02
      1.96572736e-01 6.50389716e-02 4.64584157e-02 4.38609123e-02
      1.03068314e-02 1.40153393e-02 0. 0. 0. 4.94165421e-02</_>
    <_>
      8.33251476e-02 9.33366194e-02 6.57470375e-02 1.87328309e-02
      1.32429264e-02 0. 0. 0. 3.27225477e-02 2.94236958e-01
      2.75281131e-01 4.57212031e-02 1.09992363e-02 7.04046292e-03 0.
      5.12583442e-02 1.82509813e-02 1.89716280e-01 1.91414326e-01
      2.73579508e-01 2.94236958e-01 1.58579618e-01 2.94236958e-01
      1.14093490e-01 2.05064453e-02 0. 1.08207248e-01 2.94236958e-01
      2.94236958e-01 2.94236958e-01 8.44684616e-02 2.47980565e-01
      4.74636033e-02 1.34029135e-01 4.28818986e-02 2.94236958e-01
      2.62101442e-01 1.14929773e-01 1.58801908e-03 0. 1.42815197e-02
      2.46428996e-02 1.99202850e-01 6.33815452e-02 1.71711758e-01
      4.48731221e-02 4.35366110e-06 1.45636126e-02 2.15934422e-02
      8.12488198e-02 3.28571945e-02 1.40035212e-01 4.00723703e-02
      3.37157510e-02 3.15939754e-01 3.14404428e-01 4.56306040e-02 0.
      3.15939754e-01 1.30285859e-01 3.15939754e-01 1.52043000e-01
      3.15939754e-01 8.52221176e-02 1.28382262e-05 1.09227085e-02
      2.42738631e-02 3.15939754e-01 2.18365878e-01 3.15939754e-01
      9.94525254e-02 5.23153692e-02 5.44715561e-02 0. 6.93361312e-02
      1.02804564e-01 3.80029976e-01 7.17629399e-03 5.02569787e-03
      3.00432872e-02 9.82267559e-02 6.32837117e-02 0. 5.20021021e-02
      7.71034211e-02 4.02959645e-01 5.25687868e-03 0. 3.91626433e-02
      1.21623971e-01 2.17886195e-02 0. 5.20021021e-02 1.15565829e-01
      4.02959645e-01 3.24681014e-01 1.08592369e-01 3.29429433e-02
      5.46050221e-02 2.53134798e-02 0. 3.90015654e-02 8.66743624e-02
      4.02959645e-01 3.37516338e-01 1.95190609e-01 4.65873219e-02
      6.90686628e-02 6.44812584e-02 9.08362046e-02 1.55951753e-01
      7.09376633e-02 3.46831411e-01 2.43324533e-01 7.26288930e-02 0.
      4.97354679e-02 2.60544538e-01 2.64593899e-01 1.66491404e-01
      3.55424620e-02 3.46831411e-01 1.37779504e-01 1.06368363e-01
      1.36129865e-02 1.65106431e-01 3.25487135e-03 2.94831302e-03
      1.81560237e-02 4.00677836e-03 3.46831411e-01 2.68481165e-01
      1.40155092e-01 0. 3.25487135e-03 1.13939736e-02 3.93108325e-03
      2.42080260e-02 5.34237083e-03 3.46831411e-01 2.07706854e-01
      2.14052960e-01 8.86711851e-03 1.13939736e-02 1.54238880e-01
      9.40871090e-02 2.56081950e-02 0. 3.93737316e-01 7.02939183e-02
      1.57044739e-01 3.81014459e-02 7.73308873e-02 2.51781475e-02
      9.78943077e-04 2.91726855e-03 1.66326133e-03 3.93737316e-01
      1.31175712e-01 1.19025141e-01 2.39205118e-02 1.48204137e-02
      1.83570571e-02 4.67612583e-04 2.87960796e-03 6.35488948e-04
      3.93737316e-01 5.74383065e-02 2.43671343e-01 6.38965145e-02
      2.73328070e-02 1.67540297e-01 1.99318901e-01 3.12129855e-02 0.
      3.93737316e-01 1.03327133e-01 2.68819988e-01 9.93763581e-02
      2.08243415e-01 9.14141536e-03 4.12677135e-03 1.32845454e-02
      1.24307852e-02 3.49070817e-01 2.71672249e-01 6.18433096e-02
      6.43398706e-03 9.14141536e-03 2.52818526e-03 3.09507851e-03
      1.16009172e-02 1.87559109e-02 3.49070817e-01 2.78999567e-01
      1.31530821e-01 1.35562671e-02 2.52818526e-03 1.80237651e-01
      3.19335520e-01 1.38345182e-01 5.90836853e-02 3.49070817e-01
      1.55221537e-01 4.39279377e-02 2.22170949e-02 2.25756437e-01
      4.75945882e-02 1.65534049e-01 1.49135500e-01 1.34075820e-01
      3.49070817e-01 1.53703123e-01 2.10656356e-02 2.25937762e-03
      8.09812471e-02 2.22317390e-02 6.57986403e-02 7.38587976e-02
      2.86729243e-02 4.45525378e-01 2.27413133e-01 7.09533617e-02
      3.34300399e-02 7.20323920e-02 2.04305463e-02 8.77315030e-02
      9.84783843e-02 3.82305570e-02 4.45525378e-01 1.88960999e-01
      1.34328201e-01 3.39509211e-02 5.77810369e-02 5.55793531e-02
      8.77315030e-02 5.95164970e-02 2.15046909e-02 4.25641418e-01
      7.86097944e-02 2.57456163e-03 4.45733778e-02 1.21980220e-01
      5.10763749e-02 1.16975322e-01 7.93553144e-02 2.86729150e-02
      4.35536563e-01 5.89573346e-02 1.93092087e-03 3.34300324e-02
      1.00877009e-01 5.64434975e-02 1.04508344e-02 1.17310341e-02
      4.55413666e-03 2.94579566e-01 3.34422663e-02 2.94579566e-01
      1.81813359e-01 7.03737438e-02 2.94579566e-01 2.94579566e-01
      9.34700519e-02 0. 2.94579566e-01 5.75214997e-02 2.94579566e-01
      2.94579566e-01 2.94579566e-01 3.45030054e-02 1.39344446e-02
      9.45303775e-03 3.41560179e-03 1.20708980e-01 0. 6.81098327e-02
      9.33556110e-02 3.87600027e-02 2.64372438e-01 1.34923205e-01
      5.76463081e-02 0. 5.71501181e-02 0. 1.32164598e-01 1.86865523e-01
      2.65006214e-01 2.86390603e-01 2.86390603e-01 2.86390603e-01
      9.66966748e-02 2.74134219e-01 5.96972257e-02 8.41628984e-02
      8.68079811e-02 2.86390603e-01 1.53291240e-01 2.86390603e-01
      2.86390603e-01 2.08022997e-01 2.86390603e-01 5.94181344e-02
      1.94601249e-03 0. 1.82398796e-01 2.62444794e-01 2.19759211e-01
      1.25150427e-01 1.45703666e-02 1.70021094e-02 0. 2.97839791e-02
      5.09708822e-02 2.36616507e-01 7.69971833e-02 8.08285028e-02
      7.45365620e-02 3.08061372e-02 2.83637904e-02 0. 0. 0.
      6.45315349e-02</_>
    <_>
      1.70183435e-01 3.51410545e-02 8.31145644e-02 7.09601715e-02
      6.35081306e-02 1.49767213e-02 1.67911984e-02 1.06771262e-02
      1.25074103e-01 3.09049398e-01 1.51377812e-01 1.79848582e-01
      2.92772558e-02 3.18938978e-02 5.99068776e-03 7.61510730e-02
      4.35366035e-02 3.09049398e-01 3.09049398e-01 1.01263314e-01
      1.24391720e-01 1.19071707e-01 1.68470502e-01 8.98602977e-02
      1.00747153e-01 6.40627295e-02 2.77993470e-01 3.09049398e-01
      3.09049398e-01 2.20247567e-01 4.98616546e-02 2.01819882e-01
      7.74242654e-02 1.34750739e-01 1.12976916e-01 3.09049398e-01
      2.67713368e-01 9.73217413e-02 1.09999649e-01 0. 4.98181283e-02
      2.72579603e-02 2.72888213e-01 1.00893311e-01 2.18769208e-01
      3.66644822e-02 7.48445233e-03 9.47979465e-03 0. 7.67487660e-02
      3.63439433e-02 2.21031934e-01 5.97922988e-02 3.69182937e-02
      3.09547186e-01 1.41473591e-01 9.95827615e-02 0. 3.09547186e-01
      1.82925835e-01 3.09547186e-01 1.78280547e-01 3.09547186e-01
      3.87638994e-02 5.61333867e-03 7.10984552e-03 0. 3.09547186e-01
      1.59781337e-01 3.02793145e-01 1.02772869e-01 4.24617380e-02 0. 0.
      0. 0. 3.01188707e-01 1.11170486e-01 2.68311888e-01 3.99575159e-02
      0. 0. 0. 0. 0. 0. 0. 0. 0. 0. 0. 0. 0. 0. 6.42677307e-01
      3.82957757e-01 4.97245103e-01 9.98938084e-02 0. 0. 0. 0. 0. 0. 0.
      0. 0. 0. 2.29799107e-01 6.62521347e-02 4.27277051e-02
      4.21486422e-02 8.48483741e-02 7.44750276e-02 8.34979266e-02
      5.30943610e-02 2.27772713e-01 3.09903353e-01 2.13383779e-01
      7.02870637e-02 1.85941868e-02 3.09903353e-01 9.42717791e-02
      6.99903890e-02 7.58605301e-02 3.09903353e-01 1.47775173e-01
      1.08654909e-01 1.27495095e-01 9.16328467e-03 6.05559722e-02 0. 0.
      0. 9.32116359e-02 3.09903353e-01 3.09903353e-01 2.37802759e-01
      1.10102668e-02 3.09903353e-01 6.17074966e-03 0. 0. 3.09903353e-01
      8.12973380e-02 2.32751109e-02 5.80602139e-03 5.45338960e-04
      3.87994468e-01 8.10124651e-02 3.56731154e-02 3.28502022e-02
      9.04006287e-02 2.38086712e-02 5.48134744e-03 5.88715775e-04
      2.18135538e-04 3.87994468e-01 6.89914972e-02 3.63146551e-02
      1.71704702e-02 2.61879507e-02 1.96907282e-01 1.57307357e-01
      1.01729728e-01 3.27203237e-03 3.87994468e-01 3.44805643e-02
      9.12001915e-03 3.17567140e-02 1.06197320e-01 3.47069949e-01
      2.46637672e-01 5.57585247e-02 1.30881276e-03 3.87994468e-01
      7.59542212e-02 2.28000507e-02 7.93917924e-02 2.78585613e-01
      7.16790929e-02 3.23011056e-02 3.46925156e-03 0. 3.11871499e-01
      2.12351363e-02 1.23636555e-02 2.61646137e-02 6.32303283e-02
      3.44689041e-02 1.29204420e-02 1.38770032e-03 0. 0. 0.
      3.26761557e-03 3.41502726e-02 2.97383815e-02 3.11871499e-01
      3.11871499e-01 1.17029727e-01 3.31525952e-02 2.76079148e-01
      1.17699295e-01 1.01771943e-01 2.67201871e-01 3.11871499e-01
      3.11871499e-01 2.25036323e-01 7.79552460e-02 8.28815028e-02
      1.59140736e-01 1.83370933e-01 1.17476612e-01 3.03262234e-01
      2.84143001e-01 2.09698722e-01 1.24353506e-01 2.03553438e-01
      2.03681029e-02 1.81980357e-01 0. 6.52237758e-02 2.17966959e-02
      1.59262165e-01 3.01627785e-01 3.01627785e-01 3.01627785e-01
      1.62114725e-02 1.45344689e-01 6.07290538e-04 4.89178263e-02
      1.63475219e-02 3.01627785e-01 2.08621845e-01 5.11283129e-02
      1.17716640e-01 1.52760753e-02 1.66794077e-01 0. 8.69650245e-02
      2.90622562e-02 1.86497539e-01 3.01627785e-01 2.45665714e-01
      2.48323977e-01 1.14570549e-02 6.67176172e-02 0. 6.52237609e-02
      2.17966903e-02 3.01627785e-01 2.83845246e-01 2.83845246e-01
      2.22306937e-01 1.77239242e-03 2.76191324e-01 1.61421448e-02
      4.94012702e-03 3.04611437e-02 2.83845246e-01 2.83845246e-01
      2.83845246e-01 1.19342394e-01 7.08956970e-04 2.50107527e-01
      3.79389077e-02 1.23503180e-02 7.61528686e-02 2.83845246e-01
      2.83845246e-01 1.83024168e-01 1.29109547e-01 0. 0. 0. 0. 0.
      2.00127184e-01 2.83845246e-01 7.58593902e-02 5.39985262e-02 0. 0.
      0. 0. 0. 2.06456140e-01 3.31165999e-01 3.31165999e-01
      2.14500815e-01 4.39539850e-02 8.90037715e-02 7.24489465e-02
      6.69521168e-02 1.52523622e-01 3.31165999e-01 3.16668153e-01
      2.76215315e-01 1.40076742e-01 1.09884962e-01 1.70819104e-01
      1.37291268e-01 8.15661922e-02 1.60277605e-01 2.86893517e-01
      3.31165999e-01 1.00375645e-01 7.61693940e-02 7.32566323e-03
      5.69327082e-03 0. 0. 0. 2.50608087e-01 8.14476907e-02
      6.62301034e-02 4.64751497e-02 1.83141604e-02 1.97837986e-02 0. 0.
      0. 7.43380934e-02</_>
    <_>
      8.41045156e-02 6.45072833e-02 3.57437916e-02 1.63786802e-02
      2.44893879e-02 0. 0. 0. 5.64360395e-02 2.99440563e-01
      1.76747352e-01 9.32176039e-02 1.31438086e-02 9.79575608e-03 0.
      3.84877659e-02 2.27339119e-02 2.04268247e-01 2.01367661e-01
      2.70163178e-01 3.06698769e-01 9.82720405e-02 3.06698769e-01
      6.63187588e-03 0. 0. 1.12436712e-01 3.06698769e-01 3.06698769e-01
      3.06698769e-01 7.88628235e-02 3.06698769e-01 3.59848440e-02
      6.16469570e-02 3.37639675e-02 3.06698769e-01 2.58404851e-01
      9.74992663e-02 6.59556985e-02 4.23465064e-03 4.78185993e-03
      1.35888681e-02 1.82071015e-01 8.52904394e-02 1.69114873e-01
      4.61838618e-02 4.71695745e-03 2.94206501e-03 1.61393564e-02
      6.31541982e-02 1.81184877e-02 1.37514099e-01 5.25051765e-02
      2.82442458e-02 3.19327414e-01 2.50044763e-01 1.79025218e-01
      2.54078954e-02 3.19327414e-01 1.76505223e-01 3.19327414e-01
      1.54226512e-01 3.19327414e-01 8.69809389e-02 2.07328778e-02
      1.76523831e-02 3.04956697e-02 3.19327414e-01 1.75224483e-01
      3.19327414e-01 1.14096947e-01 5.28009497e-02 7.13112503e-02 0. 0.
      7.33106583e-02 4.20412213e-01 3.32323881e-03 8.25024024e-03
      1.23171869e-03 1.26223341e-01 9.11319554e-02 0. 0. 5.49829975e-02
      4.65415537e-01 0. 0. 0. 1.64348051e-01 3.42524946e-02 0. 0.
      6.46942928e-02 4.65415537e-01 9.62046832e-02 1.28188282e-01
      1.39538702e-02 7.54365548e-02 4.40900996e-02 0. 0. 4.85207103e-02
      4.65415537e-01 5.86167574e-02 2.21861109e-01 1.64088998e-02
      9.90021750e-02 5.08794077e-02 1.07547417e-01 2.10265145e-01
      3.38049047e-02 3.86054188e-01 3.99560928e-02 5.28336689e-02
      8.57572630e-03 2.54058149e-02 3.03014100e-01 1.77004769e-01
      2.15353042e-01 2.71282662e-02 3.86054188e-01 6.98083043e-02
      2.97679696e-02 7.75975175e-03 1.27729654e-01 2.20002085e-02
      1.32167162e-02 1.65757407e-02 0. 3.86054188e-01 4.31932323e-02
      2.03152671e-01 3.84745412e-02 3.89853083e-02 2.09658399e-01
      1.12599306e-01 1.10315330e-01 0. 3.86054188e-01 5.58389239e-02
      8.62850770e-02 2.21074093e-02 1.26701489e-01 1.63789630e-01
      5.00760525e-02 4.22236174e-02 6.22132793e-03 3.79320592e-01
      7.41188899e-02 6.91554025e-02 1.92756280e-02 7.53792971e-02
      4.76813838e-02 1.44089377e-02 2.03501135e-02 4.97249281e-03
      3.79320592e-01 7.52913654e-02 7.98758566e-02 1.72737241e-02
      2.40879729e-02 1.89113587e-01 1.41189396e-01 1.57071814e-01
      1.60665810e-02 3.79320592e-01 1.91422403e-02 2.86376923e-02
      1.07923439e-02 9.23752040e-02 3.79320592e-01 1.93037122e-01
      1.66434452e-01 2.14221012e-02 3.79320592e-01 3.65889110e-02
      7.15942383e-02 2.41669863e-02 2.24769056e-01 3.87744270e-02
      2.52515376e-02 5.34006953e-02 1.41185115e-03 3.33698213e-01
      7.11833388e-02 8.07805881e-02 7.97916297e-03 2.61411574e-02
      1.04398038e-02 1.39499772e-02 4.31779511e-02 1.05888816e-03
      3.33698213e-01 5.66349663e-02 1.75723404e-01 1.62629820e-02
      1.04398038e-02 3.33698213e-01 2.58905560e-01 3.33698213e-01
      3.20046954e-03 3.33698213e-01 3.08752302e-02 3.85827720e-02
      8.76443367e-03 2.33798638e-01 8.69278535e-02 1.54367909e-01
      3.33698213e-01 0. 3.33698213e-01 2.36430056e-02 4.91049625e-02
      5.92719670e-03 6.78755417e-02 1.06038146e-01 5.74771091e-02
      2.89635193e-02 0. 2.92139083e-01 1.32512739e-02 2.37910271e-01
      1.01267867e-01 1.26453876e-01 2.92139083e-01 2.92139083e-01
      2.40743652e-01 0. 2.92139083e-01 1.23256072e-02 1.58361286e-01
      1.02406718e-01 2.92139083e-01 1.13385506e-01 4.81803976e-02
      1.54614020e-02 0. 1.23453200e-01 3.66360508e-03 1.62940025e-01
      9.51646715e-02 1.00237548e-01 2.92139083e-01 2.92139083e-01
      1.16008393e-01 0. 6.09488934e-02 2.74770358e-03 1.33613497e-01
      1.04296394e-01 2.92139083e-01 2.72917658e-01 2.72917658e-01
      2.72917658e-01 1.67189632e-02 2.72917658e-01 8.33225623e-03
      3.01697738e-02 4.03620675e-02 2.72917658e-01 2.72917658e-01
      2.72917658e-01 2.64483899e-01 2.22919472e-02 2.40506932e-01
      1.91959236e-02 6.94756508e-02 7.88578540e-02 2.72917658e-01
      2.72917658e-01 2.45036602e-01 1.38765708e-01 0. 3.06641008e-03 0.
      8.52029677e-03 2.18013078e-02 1.78183049e-01 1.88682139e-01
      1.18233509e-01 8.38426948e-02 0. 1.04618771e-03 0. 1.33690191e-02
      3.15431394e-02 1.22196369e-01 3.47353518e-01 3.47353518e-01
      3.47353518e-01 6.15089759e-03 1.59940690e-01 9.57927760e-03
      3.39462198e-02 3.85304205e-02 3.47353518e-01 2.08158076e-01
      3.30216736e-01 3.47353518e-01 0. 3.15846592e-01 1.59167321e-04 0.
      0. 1.43318459e-01 2.04987049e-01 1.34962961e-01 7.62686580e-02 0.
      0. 0. 6.53218245e-03 1.54121676e-02 1.43492520e-01 4.20638174e-02
      3.82256135e-02 3.32871899e-02 0. 0. 0. 0. 0. 3.12572159e-02</_>
    <_>
      5.23100272e-02 8.66222978e-02 5.19524924e-02 0. 0. 0. 0. 0.
      3.42164673e-02 2.90524811e-01 1.50497854e-01 4.91940007e-02 0. 0.
      4.47600055e-03 9.15490277e-03 5.54773910e-03 2.03025922e-01
      1.88838184e-01 3.09206039e-01 3.16994280e-01 2.22051200e-02
      3.16994280e-01 7.13336607e-03 0. 0. 1.20756641e-01 3.16994280e-01
      3.16994280e-01 3.16994280e-01 2.96068210e-02 2.78674394e-01
      2.07011551e-02 4.69342470e-02 3.76922004e-02 3.16994280e-01
